svm_type epsilon_svr
kernel_type rbf
gamma 1.0
nr_class 2
total_sv 1400
rho -2944.6217902689955
SV
64.0 1:0.8190051967334807 2:0.8064587973273961 3:0.8060465116279071 4:0.8075624577987839 5:0.009327573303675316 6:0.9743431617291103 
64.0 1:0.8226429101707505 2:0.8244246473645128 3:0.8255813953488372 4:0.8212919198739578 5:0.00732717609407486 6:0.9406434359811954 
64.0 1:0.824573125463993 2:0.8351150705270968 3:0.8198449612403118 4:0.831495235951684 5:0.004237276082126063 6:0.928594751087375 
-64.0 1:0.8345953971789177 2:0.8452115812917599 3:0.8436434108527127 4:0.8451496736439318 5:0.010010127541612105 6:0.8717421811865413 
-64.0 1:0.8452115812917599 2:0.8187082405345204 3:0.8293023255813955 4:0.8267686998274428 5:0.005081847444188274 6:0.8190944414976281 
-64.0 1:0.8313288789903501 2:0.8457312546399423 3:0.8393798449612418 4:0.8341210893540391 5:0.007972582139998461 6:0.7170280779749238 
-64.0 1:0.8458054936896807 2:0.8006681514476619 3:0.8372093023255814 4:0.8004351414209591 5:0.011122401302851973 6:0.6893257099284436 
-64.0 1:0.8186340014847819 2:0.8149962880475122 3:0.8089147286821698 4:0.8192662615349977 5:0.0015498124815038505 6:0.6261853823879545 
-61.46828104027191 1:0.8149962880475122 2:0.8016332590942848 3:0.8057364341085276 4:0.8117638232425527 5:0.0044570683837959505 6:0.6084704586047285 
64.0 1:0.801559020044543 2:0.8068299925760949 3:0.7926356589147286 4:0.8046365068647312 5:0.004295751904559498 6:0.6162995586000398 
-64.0 1:0.806978470675575 2:0.821974758723088 3:0.8060465116279071 4:0.8177657738765101 5:0.0022961814559280284 6:0.6132942741932781 
-64.0 1:0.821974758723088 2:0.8161841128433571 3:0.8134883720930237 4:0.8192662615349977 5:0.0032695033227873667 6:0.5697950307278684 
64.0 1:0.7835189309576845 2:0.792798812175205 3:0.7962790697674403 4:0.7900067521944614 5:0.0072479051313367945 6:0.5734721482779357 
64.0 1:0.7924276169265028 2:0.8101707498144043 3:0.7961240310077505 4:0.803286067972089 5:0.0028466641322939744 6:0.5973066936655742 
64.0 1:0.815590200445433 2:0.8677802524127693 3:0.8984496124031015 4:0.8242178708080103 5:0.02601274470250457 6:0.7771612118107971 
-64.0 1:0.8677802524127693 2:0.9038604305864897 3:0.9193798449612396 4:0.8792857678745581 5:0.019668209052312344 6:0.7943205650935015 
-64.0 1:0.9022271714922042 2:0.9115812917594664 3:0.9018604651162802 4:0.9072698627053782 5:0.005133274779038672 6:0.813864229445367 
-64.0 1:0.8991833704528586 2:0.9075723830734979 3:0.8992248062015504 4:0.9064445944932084 5:0.004839676544764686 6:0.7520635848270795 
-64.0 1:0.8991833704528586 2:0.905864884929474 3:0.9069767441860465 4:0.9111711306174496 5:0.005465436508001568 6:0.709187612118995 
64.0 1:0.905864884929474 2:0.9033407572383073 3:0.893565891472868 4:0.9017930827518933 5:0.0030592538045052502 6:0.6849734165376526 
-64.0 1:0.903043801039347 2:0.9017074981440253 3:0.9029457364341087 4:0.9132718133393357 5:0.002254871433274357 6:0.667384729248165 
-64.0 1:0.9016332590942835 2:0.9046028210838907 3:0.8956589147286819 4:0.9054692775151897 5:0.003679632814994843 6:0.6464970936117498 
-64.0 1:0.9009651076466209 2:0.9194506310319234 3:0.9143410852713164 4:0.9104959111711284 5:0.004992907581982423 6:0.6408173891064985 
64.0 1:0.9104677060133634 2:0.9178173719376412 3:0.9086821705426341 4:0.9167979593367833 5:0.0027683040079115695 6:0.64745529124087 
64.0 1:0.918411284335562 2:0.9279881217520428 3:0.9180620155038747 4:0.9279015680096021 5:0.004193780047418804 6:0.6627462236318048 
-64.0 1:0.9278396436525627 2:0.9391239792130673 3:0.937984496124031 4:0.9357041038337447 5:0.01346856676515912 6:0.6426248617211774 
-64.0 1:0.9390497401633255 2:0.9194506310319234 3:0.937984496124031 4:0.9271513241803583 5:0.008229732827148228 6:0.6019578617829636 
-64.0 1:0.9178173719376412 2:0.9001484780994815 3:0.9241860465116264 4:0.910796008702826 5:0.009892433213162926 6:0.5804300970632007 
64.0 1:0.9042316258351885 2:0.9008166295471407 3:0.9027131782945722 4:0.9063695701102856 5:0.005498675101534303 6:0.554824802589172 
64.0 1:0.9008908685968825 2:0.9026726057906448 3:0.8922480620155032 4:0.907344887088301 5:0.001486558260927639 6:0.5523788248589268 
64.0 1:0.903043801039347 2:0.9031180400890888 3:0.9062790697674408 4:0.9099707404906594 5:0.005929557695353071 6:0.553787414072172 
64.0 1:0.9033407572383073 2:0.8947290274684495 3:0.8907751937984485 4:0.9040438142396281 5:0.004130315633375903 6:0.5457225004229385 
64.0 1:0.8939866369710485 2:0.8963622865627315 3:0.8893798449612405 4:0.9017930827518933 5:0.0016629386052769465 6:0.5492767439988381 
64.0 1:0.8963622865627315 2:0.8965107646622118 3:0.8855813953488355 4:0.9020181559006681 5:0.0014437348453137933 6:0.5626957283798985 
-64.0 1:0.8965107646622118 2:0.9026726057906448 3:0.8959689922480615 4:0.9034436191762296 5:0.0066750858959104846 6:0.4983108593982441 
-64.0 1:0.9021529324424659 2:0.8428359317000735 3:0.8907751937984485 4:0.8501012829169479 5:0.011461331261442319 6:0.44903369931952963 
64.0 1:0.8428359317000735 2:0.8303637713437273 3:0.8550387596899239 4:0.8117638232425527 5:0.0170460035166488 6:0.4277204892332463 
64.0 1:0.8303637713437273 2:0.8300668151447669 3:0.8355813953488369 4:0.8356215770125267 5:0.005340581588787115 6:0.4514832796933238 
-64.0 1:0.860356347438753 2:0.8512249443207127 3:0.8585271317829457 4:0.856778452997223 5:0.003704715902019969 6:0.5618088943272797 
64.0 1:0.8499628804751295 2:0.8739420935412023 3:0.8600775193798436 4:0.8342711381198878 5:0.008544658691842462 6:0.6260383039236056 
-64.0 1:0.8948775055679297 2:0.8940608760207869 3:0.8992248062015504 4:0.8996924000300072 5:0.004498294329062945 6:0.6856244910879642 
-64.0 1:0.8940608760207869 2:0.8876763177431319 3:0.8906976744186054 4:0.8885137669742657 5:0.007146129454765012 6:0.6937060385625555 
-64.0 1:0.8926503340757234 2:0.9195991091314035 3:0.9069767441860465 4:0.9017930827518933 5:0.008975457208274555 6:0.7594314564614364 
-64.0 1:0.9195991091314035 2:0.9138084632516693 3:0.9206201550387614 4:0.9067446920249059 5:0.007600693845830967 6:0.751838992218423 
64.0 1:0.9052709725315532 2:0.9210838901262055 3:0.9198449612403089 4:0.9167979593367833 5:0.005576082348867709 6:0.8263517050939576 
64.0 1:0.9213808463251658 2:0.971566443949518 3:0.9622480620155047 4:0.9302273238802597 5:0.014821946445591344 6:0.8928309928913044 
-64.0 1:0.9716406829992598 2:1.0 3:0.9924806201550403 4:0.9642883937279599 5:0.018770696962439562 6:0.878048118668063 
64.0 1:1.0 2:0.9663697104677078 3:1.0 4:0.9714907344887075 5:0.021326397285242077 6:0.8961484073665688 
64.0 1:0.9834446919079434 2:0.9870824053452132 3:0.9922480620155039 4:0.9805686848225662 5:0.008280585633189673 6:0.8194182014551605 
64.0 1:0.9867854491462528 2:0.9862657757980704 3:0.9883720930232558 4:0.9900967814539713 5:0.011702465206430233 6:0.7904506533575523 
64.0 1:0.9867854491462528 2:0.9876020786933921 3:0.9844961240310077 4:0.9918223422612338 5:0.0050039077067392515 6:0.7544505141167887 
64.0 1:0.9876020786933921 2:0.9821826280623601 3:0.9922480620155039 4:0.9939230249831199 5:0.00822481430002766 6:0.7334037353379584 
64.0 1:0.9818114328136613 2:0.9907201187824796 3:0.9844961240310077 4:0.9903968789856689 5:0.007983512200266394 6:0.7213325940186988 
-64.0 1:0.9988864142538969 2:0.9812175204157405 3:0.9937984496124017 4:0.9925725860904776 5:0.005786990473345457 6:0.6489036344336463 
-64.0 1:0.980549368968078 2:0.9761692650334073 3:0.98046511627907 4:0.9699902468302198 5:0.011750711613484706 6:0.5950464407650402 
-64.0 1:0.9761692650334073 2:0.9543429844097988 3:0.9672093023255812 4:0.9618125890914536 5:0.010993875004419316 6:0.5531018965502149 
64.0 1:0.9543429844097988 2:0.9486265775798064 3:0.9462015503875965 4:0.9325530797509173 5:0.019150754776012448 6:0.545878732522487 
64.0 1:0.9484038604305878 2:0.9625092798812195 3:0.972790697674417 4:0.9544601995648574 5:0.011909561822711983 6:0.546450113337831 
-64.0 1:0.9625092798812195 2:0.9648849294729026 3:0.9689922480620154 4:0.9700652712131425 5:0.011456454773015087 6:0.524333446046419 
64.0 1:0.9650334075723828 2:0.9452858203415003 3:0.9651162790697675 4:0.9394553229799673 5:0.014455705349228945 6:0.5269135205128761 
64.0 1:0.9552338530066834 2:0.9455827765404607 3:0.9455813953488373 4:0.9468077125065635 5:0.008541533815637657 6:0.5085591722511222 
64.0 1:0.9455827765404607 2:0.9358574610244997 3:0.9457364341085271 4:0.9476329807187335 5:0.006549222048055915 6:0.4991746443840294 
64.0 1:0.9365998515219007 2:0.9297698589458051 3:0.9296899224806189 4:0.9393052742141185 5:0.009267682178566161 6:0.5091466029011773 
64.0 1:0.9297698589458051 2:0.9371195248700831 3:0.9365116279069763 4:0.9393802985970445 5:0.005424939233419102 6:0.5369552249209929 
64.0 1:0.9374164810690434 2:0.9491462509279888 3:0.9421705426356586 4:0.948533273313826 5:0.007254925593124273 6:0.5623233205381083 
64.0 1:0.9491462509279888 2:0.951373422420195 3:0.9449612403100782 4:0.9569360042013637 5:0.00785139860000221 6:0.5795996745488453 
-64.0 1:0.951373422420195 2:0.9492947290274689 3:0.9457364341085271 4:0.9590366869232497 5:0.0033578686561842623 6:0.5756890237896137 
-64.0 1:0.9492947290274689 2:0.935040831477357 3:0.9410077519379835 4:0.9318028359216735 5:0.006721118265115815 6:0.5581957838716 
-64.0 1:0.935040831477357 2:0.9201930215293244 3:0.9253488372093015 4:0.9261760072023396 5:0.012047238543394586 6:0.5603388308785227 
64.0 1:0.9201930215293244 2:0.9266518188567178 3:0.9147286821705426 4:0.910796008702826 5:0.009053957461634753 6:0.5539317917345417 
64.0 1:0.9266518188567178 2:0.9165553080920579 3:0.9185271317829441 4:0.925800885287716 5:0.006288582149359076 6:0.5602407261541719 
-64.0 1:0.9201930215293244 2:0.9118040089086851 3:0.9224806201550387 4:0.9222747392902684 5:0.014433578983635275 6:0.5455376257387976 
-64.0 1:0.8972531551596128 2:0.9109873793615457 3:0.9065891472868203 4:0.9025433265811371 5:0.013724119981962038 6:0.5545092470025917 
-64.0 1:0.9121752041573872 2:0.8927988121752036 3:0.9069767441860465 4:0.8867882061670032 5:0.010940682044448716 6:0.5642447710075313 
64.0 1:0.9193021529324432 2:0.9292501855976262 3:0.9205426356589147 4:0.9167229349538573 5:0.007518704380923699 6:0.6993601528278408 
-64.0 1:0.9296956198960667 2:0.9396436525612464 3:0.9282170542635642 4:0.9405056643409085 5:0.010062816037262648 6:0.7162930596356959 
-64.0 1:0.9392724573125475 2:0.9323682256867102 3:0.9282170542635642 4:0.9338284942606334 5:0.014764017126171305 6:0.7130065837956967 
64.0 1:0.9225686711210107 2:0.9292501855976262 3:0.9224806201550387 4:0.9282016655412997 5:0.006068411499449145 6:0.7491291791775996 
64.0 1:0.9292501855976262 2:0.9528582034149969 3:0.9689922480620154 4:0.9415560057018534 5:0.017221374932357987 6:0.760388878520411 
41.05715266255054 1:0.9531551596139572 2:0.9492947290274689 3:0.9689922480620154 4:0.960312101432966 5:0.010684470221450167 6:0.7778231931798115 
64.0 1:0.9489977728285085 2:0.961098737936156 3:0.969844961240311 4:0.960312101432966 5:0.012533920496170924 6:0.7777180389245436 
-64.0 1:0.9604305864884934 2:0.9569413511507072 3:0.9580620155038772 4:0.9680396128741825 5:0.011362175996755285 6:0.7606515709586185 
-64.0 1:0.9564959168522633 2:0.9482553823311076 3:0.9471317829457352 4:0.9468827368894897 5:0.013555460744289179 6:0.7428598901588632 
64.0 1:0.9482553823311076 2:0.9468448403860441 3:0.937984496124031 4:0.9378047865556308 5:0.014459278638162694 6:0.7433022207074058 
64.0 1:0.9472160356347429 2:0.9596139569413507 3:0.9536434108527131 4:0.9560357116062711 5:0.0222407528782457 6:0.7416761285827491 
-64.0 1:0.9596139569413507 2:0.9619153674832953 3:0.9577519379844975 4:0.9679645884912598 5:0.01745090619798456 6:0.7100088833597946 
-64.0 1:0.961618411284335 2:0.9415738678544922 3:0.9608527131782931 4:0.9451571760822272 5:0.024548214716886143 6:0.6744727801724393 
64.0 1:0.9414996288047504 2:0.9317743132887895 3:0.9349612403100785 4:0.9115462525320732 5:0.04301435535898823 6:0.6496458251595723 
64.0 1:0.9317743132887895 2:0.9308834446919082 3:0.9257364341085277 4:0.9393052742141185 5:0.011958354732779855 6:0.6464732376865724 
64.0 1:0.9308834446919082 2:0.9407572383073495 3:0.9331782945736442 4:0.9393052742141185 5:0.010930326512989738 6:0.6675495543235762 
-23.05511074268955 1:0.9411284335560516 2:0.9589458054936915 3:0.9534883720930233 4:0.9507840048015609 5:0.01642853918889732 6:0.6766249874389494 
64.0 1:0.9579806978470686 2:0.9565701559020051 3:0.9500000000000014 4:0.9543101507990086 5:0.020554735030326083 6:0.6770212366524729 
-64.0 1:0.9567186340014853 2:0.9536748329621396 3:0.9471317829457352 4:0.9618125890914536 5:0.012549166528954915 6:0.6653590120679344 
-64.0 1:0.9461766889383815 2:0.9389755011135872 3:0.935503875968991 4:0.9468077125065635 5:0.019230908551310613 6:0.6171154903863418 
64.0 1:0.922494432071269 2:0.9135115070527089 3:0.9220155038759694 4:0.9227248855878146 5:0.023214172835389492 6:0.5805043955495497 
-64.0 1:0.9135857461024507 2:0.9195991091314035 3:0.9131782945736449 4:0.9253507389901697 5:0.010396659313959071 6:0.5705099211583499 
64.0 1:0.9195248700816617 2:0.9121752041573872 3:0.9069767441860465 4:0.9152974716782957 5:0.019115498325199477 6:0.5728913387696581 
40.90312888169231 1:0.915367483296213 2:0.9134372680029705 3:0.9069767441860465 4:0.918298446995271 5:0.017148409773620654 6:0.5821030138983043 
64.0 1:0.9135115070527089 2:0.9119524870081652 3:0.9069767441860465 4:0.9187485932928207 5:0.02830624969495673 6:0.6061303077096066 
-64.0 1:0.9119524870081652 2:0.9246473645137334 3:0.9147286821705426 4:0.9236251781829072 5:0.02955765751824826 6:0.5900849427901996 
-64.0 1:0.9246473645137334 2:0.8973273942093545 3:0.914651162790696 4:0.9059194238127394 5:0.03383632770041467 6:0.4314153776502844 
64.0 1:0.7762435040831484 2:0.816035634743877 3:0.8294573643410853 4:0.7600720234076073 5:0.18380638143721517 6:0.3706290566608827 
64.0 1:0.8002227171492213 2:0.7971789161098757 3:0.7955813953488381 4:0.7892565083652175 5:0.09301388802884729 6:0.40325268139836395 
-64.0 1:0.8109873793615436 2:0.8017074981440232 3:0.7992248062015497 4:0.8072623602670863 5:0.01788589457085269 6:0.42012907886318884 
-64.0 1:0.8013363028953244 2:0.7662954714179654 3:0.7882170542635646 4:0.7149823692700109 5:0.045695485129814147 6:0.46200002362870024 
-64.0 1:0.7662954714179654 2:0.7906458797327405 3:0.7903875968992251 4:0.743791732313001 5:0.045527036085607986 6:0.4796228875711607 
-64.0 1:0.7906458797327405 2:0.7711952487008185 3:0.8101550387596916 4:0.7674994373171262 5:0.04923542336684615 6:0.46270705179027644 
64.0 1:0.7711952487008185 2:0.7368225686711221 3:0.763720930232558 4:0.7375647085302721 5:0.05721918779927258 6:0.5207046254072919 
-64.0 1:0.7776540460282119 2:0.7637713437268021 3:0.7751937984496124 4:0.7699002175707099 5:0.05441869616516172 6:0.5977119442634256 
64.0 1:0.7724573125463984 2:0.7798069784706764 3:0.7693798449612403 4:0.774626753694951 5:0.03453314706829089 6:0.7103256447736881 
-64.0 1:0.7803266518188553 2:0.8017074981440232 3:0.7945736434108527 4:0.7892565083652175 5:0.08932269457318444 6:0.7740729682789342 
-64.0 1:0.8017074981440232 2:0.8164068299925757 3:0.7992248062015497 4:0.7967589466576626 5:0.05649095151457495 6:0.7829690500645113 
64.0 1:0.7937639198218279 2:0.79539717891611 3:0.7789147286821707 4:0.7999099707404901 5:0.02237243207867872 6:0.8199215601930491 
-26.640275467992566 1:0.79539717891611 2:0.8116555308092062 3:0.8062015503875969 4:0.8044864580988825 5:0.05881497659839065 6:0.8190362675764846 
-64.0 1:0.8116555308092062 2:0.8027468448403879 3:0.794418604651163 4:0.8109385550303828 5:0.0324367895346971 6:0.795746154421098 
64.0 1:0.8027468448403879 2:0.7876763177431333 3:0.7849612403100792 4:0.7760522169705126 5:0.09375309641250619 6:0.7947778098989519 
64.0 1:0.7876763177431333 2:0.8005939123979201 3:0.7829457364341085 4:0.7930077275114401 5:0.04733065017169233 6:0.8411080650673671 
64.0 1:0.7998515219005191 2:0.8400890868596883 3:0.8372093023255814 4:0.8090629454572715 5:0.09654035987111328 6:0.9048937287362714 
-64.0 1:0.8723088344469203 2:0.8600593912397926 3:0.8591472868217048 4:0.8583539650386367 5:0.06177691082781796 6:0.8905416552763379 
-64.0 1:0.8600593912397926 2:0.8390497401633269 3:0.84798449612403 4:0.8492760147047779 5:0.09235025120291268 6:0.8336948153625261 
-64.0 1:0.8386043058648863 2:0.8164810690423175 3:0.836201550387596 4:0.8230174806812203 5:0.07054387013003283 6:0.8094665861422985 
-64.0 1:0.8312546399406084 2:0.821232368225687 3:0.8217054263565892 4:0.8293945532297978 5:0.054993547270766045 6:0.7218777325148176 
-64.0 1:0.8218262806236077 2:0.8008166295471421 3:0.8113178294573632 4:0.810263335584065 5:0.10608279293644014 6:0.667640773471225 
-64.0 1:0.8008166295471421 2:0.7859688195991094 3:0.7868217054263565 4:0.7928576787455913 5:0.09087271724815497 6:0.6287733593553331 
64.0 1:0.7807720861172993 2:0.7932442464736456 3:0.7791472868217071 4:0.7817540700727725 5:0.08700517147393838 6:0.6166674669605486 
64.0 1:0.7906458797327405 2:0.7867112100965103 3:0.7798449612403093 4:0.7912821667041776 5:0.08982331935925128 6:0.6171568156412776 
-64.0 1:0.7870081662954708 2:0.7900519673348197 3:0.7851937984496121 4:0.7967589466576626 5:0.11509614102031018 6:0.5764486334660018 
-64.0 1:0.7893838158871572 2:0.7525612472160358 3:0.7743410852713168 4:0.7617225598319437 5:0.17069909520260457 6:0.5415206665689631 
64.0 1:0.7525612472160358 2:0.74038604305865 3:0.745348837209303 4:0.7157326130992547 5:0.3386789175266277 6:0.5446485064688525 
64.0 1:0.74038604305865 2:0.7537490720118774 3:0.7455813953488359 4:0.7292370020256572 5:0.22236016518796262 6:0.550720427471569 
0.26374921874584534 1:0.752709725315516 2:0.7505567928730515 3:0.7530232558139525 4:0.7592467551954374 5:0.21321068180216568 6:0.5642951678224388 
-64.0 1:0.7505567928730515 2:0.7518930957683733 3:0.7414728682170549 4:0.747843048990921 5:0.13391076841728816 6:0.5426204089741333 
-64.0 1:0.7518188567186349 2:0.7220489977728277 3:0.7320155038759677 4:0.7142321254407671 5:0.292856167259181 6:0.35460828017907564 
-9.14764476925929 1:0.7230141054194507 2:0.5769858945805486 3:0.7017054263565891 4:0.5364243379098208 5:1.0 6:0.23284853569868724 
21.61799073229671 1:0.5769858945805486 2:0.5579806978470673 3:0.5813953488372093 4:0.47415410008252556 5:0.7982604725006198 6:0.0956554301037877 
-64.0 1:0.5579806978470673 2:0.48812175204157454 3:0.5514728682170533 4:0.47415410008252556 5:0.5559662455636741 
64.0 1:0.48812175204157454 2:0.45189309576837394 3:0.484341085271318 4:0.36911996398829494 5:0.7532060494184177 6:0.08016313514950538 
64.0 1:0.45189309576837394 2:0.5288789903489226 3:0.5176744186046527 4:0.4565983944782031 5:0.4922528363401298 6:0.1785478926627224 
64.0 1:0.5322939866369704 2:0.5357089829250182 3:0.5270542635658898 4:0.4975617075549533 5:0.349488326744679 6:0.26459165186460004 
64.0 1:0.5360801781737203 2:0.5270230141054185 3:0.5155038759689923 4:0.5266711681296409 5:0.28413362884292687 6:0.4450164241878472 
64.0 1:0.5270230141054185 2:0.6019302152932445 3:0.6046511627906976 4:0.534173606422086 5:0.4088454903839502 6:0.5861039269212953 
64.0 1:0.6019302152932445 2:0.6063103192279152 3:0.6269767441860473 4:0.5950183809738162 5:0.31283617729998275 6:0.6914222396804091 
-64.0 1:0.607646622123237 2:0.6138827023014117 3:0.5973643410852709 4:0.598019356290795 5:0.22496827374846007 6:0.8086594348959615 
-64.0 1:0.6132887899034877 2:0.595322939866371 3:0.5953488372093038 4:0.5924675519543838 5:0.10306363003248176 6:0.8278797279177906 
-64.0 1:0.5968077208611728 2:0.591536748329621 3:0.5812403100775195 4:0.588191162127689 5:0.23956692466793672 6:0.8074855996296093 
-64.0 1:0.5912397921306606 2:0.564736451373421 3:0.5679844961240309 4:0.541676044714531 5:0.2979244782441144 6:0.7902139779104572 
64.0 1:0.564736451373421 2:0.5593912397921308 3:0.5494573643410862 4:0.541676044714531 5:0.2233958304370425 6:0.8517569653740951 
64.0 1:0.5593912397921308 2:0.6143281365998523 3:0.5891472868217055 4:0.5625328231675297 5:0.19168724916124746 6:0.9326157252519375 
64.0 1:0.6144023756495908 2:0.6485523385300652 3:0.6364341085271311 4:0.6132493060244565 5:0.2726147045716112 6:0.9526037313443855 
-64.0 1:0.6485523385300652 2:0.6290274684484048 3:0.6327906976744194 4:0.6366569134968842 5:0.015369962851948115 6:0.9457582521632322 
-64.0 1:0.6288789903489247 2:0.6197475872308844 3:0.6070542635658911 4:0.602070672968715 5:0.024268377148231525 6:0.9278436470140252 
64.0 1:0.6152932442464752 2:0.6359317000742388 3:0.6197674418604637 4:0.6096481356440827 5:0.014897812274169015 6:0.940367752148721 
64.0 1:0.6359317000742388 2:0.6431328878990366 3:0.6260465116279087 4:0.6392077425163166 5:0.016369895211690532 6:0.933141823142259 
-64.0 1:0.6431328878990366 2:0.642464736451374 3:0.6351162790697662 4:0.6467101808087616 5:0.015998483356047536 6:0.9012319691663149 
-64.0 1:0.642464736451374 2:0.6285820341499643 3:0.6189922480620148 4:0.6219521344436917 5:0.0169068274159038 6:0.8569983312276592 
-64.0 1:0.629695619896064 2:0.6162583518930949 3:0.6124031007751938 4:0.6174506714682253 5:0.0138650897336228 6:0.8177523987208172 
-64.0 1:0.6164810690423168 2:0.6124721603563482 3:0.6003100775193803 4:0.6076975016880488 5:0.009800943003561224 6:0.8048439382500214 
-64.0 1:0.6131403118040074 2:0.6256867112100954 3:0.6010077519379861 4:0.595693600420134 5:0.021763347463799324 6:0.7678872500560849 
-64.0 1:0.6256867112100954 2:0.6066072754268756 3:0.6036434108527123 4:0.6140745742366264 5:0.008528964246329533 6:0.7150808437258802 
-64.0 1:0.6072011878247964 2:0.5855233853006682 3:0.5883720930232565 4:0.5859404306399575 5:0.013632573720769215 6:0.6526105351411102 
64.0 1:0.5854491462509264 2:0.5625092798812181 3:0.5662790697674432 4:0.5641833595918662 5:0.02151559943105953 6:0.6304549364633949 
-64.0 1:0.5620638455827776 2:0.5734966592427625 3:0.5607751937984508 4:0.5685347738014838 5:0.015061328778356831 6:0.5841237157259624 
64.0 1:0.5744617668893854 2:0.5444691907943563 3:0.5472093023255825 4:0.5268212168954897 5:0.025750086946527494 6:0.5771693863036699 
-64.0 1:0.544320712694876 2:0.5564216778025235 3:0.5426356589147286 4:0.5523295070898036 5:0.01657448351926977 6:0.5500288019233426 
-64.0 1:0.5564216778025235 2:0.5325167037861924 3:0.5304651162790684 4:0.5011628779353271 5:0.03075819852260057 6:0.4876581752572339 
64.0 1:0.5325167037861924 2:0.48938381588715785 3:0.5140310077519376 4:0.48240678220421446 5:0.03735551283583538 6:0.4979047790173793 
64.0 1:0.4890868596881975 2:0.5181143281366003 3:0.4969767441860475 4:0.49673643934278683 5:0.023843379971480106 6:0.6108349433020912 
-64.0 1:0.5181143281366003 2:0.5922791388270219 3:0.5736434108527132 4:0.5214944857078534 5:0.03935122973757752 6:0.6704678027856388 
-64.0 1:0.5922791388270219 2:0.578247958426132 3:0.6004651162790701 4:0.5776877485182685 5:0.026837137491764446 6:0.697728736563049 
64.0 1:0.578247958426132 2:0.5674832962138097 3:0.5508527131782941 4:0.5686848225673324 5:0.019521423948073133 6:0.7367452630649937 
-64.0 1:0.5674832962138097 2:0.5832219747587235 3:0.5658914728682171 4:0.57386150498912 5:0.017752926183823965 6:0.7450689554827175 
64.0 1:0.5825538233110609 2:0.5706755753526355 3:0.5662790697674432 4:0.5769375046890214 5:0.011658254513936225 6:0.7969562290574712 
-64.0 1:0.6082405345211578 2:0.5974758723088354 3:0.6018604651162781 4:0.6058218921149375 5:0.0215934410782241 6:0.7812348913037956 
64.0 1:0.5973273942093552 2:0.5699331848552345 3:0.5875968992248076 4:0.5631330182309248 5:0.02215338246059114 6:0.7657995296137985 
-64.0 1:0.5694135115070521 2:0.5757980697847072 3:0.5581395348837209 4:0.5750618951159101 5:0.00976529419161043 6:0.7729057949867527 
-64.0 1:0.5890868596881961 2:0.5804751299183383 3:0.5661240310077534 4:0.5865406257033525 5:0.00456656516704418 6:0.7031733220178419 
64.0 1:0.5805493689680766 2:0.5508537490720112 3:0.5539534883720934 4:0.5195438517518195 5:0.025657195447147854 6:0.6803529581551917 
64.0 1:0.5550853749072018 2:0.5532293986636977 3:0.5348837209302325 4:0.5538299947482912 5:0.005847273959592436 6:0.6845264156093729 
64.0 1:0.5532293986636977 2:0.5852264291017077 3:0.5689147286821695 4:0.5608072623602672 5:0.020533589567576966 6:0.7051309650929429 
-64.0 1:0.5901262063845575 2:0.5807720861172986 3:0.5813178294573627 4:0.5871408207667476 5:0.008975723453332363 6:0.7059143968936162 
64.0 1:0.5706755753526355 2:0.5607275426874525 3:0.5522480620155021 4:0.5641833595918662 5:0.005387258551290296 6:0.6762013858987207 
64.0 1:0.5608760207869327 2:0.5715664439495166 3:0.5585271317829471 4:0.5654587741015823 5:0.008052301515465467 6:0.6784636458962493 
64.0 1:0.5715664439495166 2:0.5749814402375644 3:0.5503875968992248 4:0.5800135043889262 5:0.003464282601921025 6:0.7117270049548201 
64.0 1:0.5762435040831477 2:0.6003711952487009 3:0.5779069767441875 4:0.5832395528546763 5:0.017440999079254522 6:0.7399295786306699 
-64.0 1:0.6003711952487009 2:0.6079435783221974 3:0.5868217054263551 4:0.602070672968715 5:0.015607621598286738 6:0.7328526110580605 
64.0 1:0.6081662954714193 2:0.5914625092798825 3:0.5829457364341071 4:0.5941931127616463 5:0.011224891637210504 6:0.7327645792758126 
64.0 1:0.5914625092798825 2:0.5977728285077958 3:0.5740310077519394 4:0.5968189661640014 5:0.00787823329924976 6:0.7673014603170116 
64.0 1:0.5977728285077958 2:0.6281365998515204 3:0.6124031007751938 4:0.6039462825418263 5:0.021284610824063906 6:0.8511486294055445 
-64.0 1:0.6276911655530797 2:0.6820341499628806 3:0.6651162790697689 4:0.6329807187335877 5:0.04104310497676893 6:0.8399374237865497 
64.0 1:0.6820341499628806 2:0.6403118040089095 3:0.6590697674418603 4:0.6461099857453666 5:0.02818365085228476 6:0.8178615508962036 
64.0 1:0.63682256867112 2:0.6523385300668152 3:0.6343410852713173 4:0.6409333033235791 5:0.009845714211966406 6:0.8388819876525888 
64.0 1:0.6523385300668152 2:0.6820341499628806 3:0.6702325581395352 4:0.6593893015229942 5:0.019766341375461485 6:0.8695307795106755 
-64.0 1:0.6820341499628806 2:0.7031922791388265 3:0.7167441860465119 4:0.6912746642658857 5:0.056622266379665706 6:0.8637091669874221 
-64.0 1:0.7031922791388265 2:0.6944320712694885 3:0.6821705426356589 4:0.6879735914172094 5:0.024245830395704472 6:0.8325787487097389 
64.0 1:0.6838158871566429 2:0.687750556792873 3:0.668992248062017 4:0.6842223722709869 5:0.013553863273942326 6:0.7863906601532287 
-64.0 1:0.6876020786933928 2:0.6955456570155916 3:0.6789922480620166 4:0.6970515417510682 5:0.014609594992642319 6:0.7464918509611387 
-64.0 1:0.6945805493689686 2:0.6820341499628806 3:0.6821705426356589 4:0.6917248105634319 5:0.00880204759825448 6:0.7359581119051595 
-64.0 1:0.6821083890126224 2:0.7005939123979215 3:0.6821705426356589 4:0.6752194463200542 5:0.0280448530997798 6:0.7077181442533186 
64.0 1:0.6699331848552331 2:0.659094283593169 3:0.6479844961240321 4:0.6679420811763805 5:0.004658447737783706 6:0.5511960713648463 
64.0 1:0.659094283593169 2:0.6707498144023759 3:0.6608527131782945 4:0.6677170080276091 5:0.011132322434479787 6:0.5878535637395348 
64.0 1:0.6707498144023759 2:0.6983667409057152 3:0.6782945736434108 4:0.6802460799759895 5:0.01895244424663838 6:0.6126495248801742 
64.0 1:0.6999257609502589 2:0.6997772828507787 3:0.7025581395348846 4:0.7036536874484206 5:0.015273007612212446 6:0.6543676052843854 
-64.0 1:0.721455085374907 2:0.7119524870081679 3:0.7100775193798442 4:0.7191837347137797 5:0.011590109792035003 6:0.6685336701622776 
64.0 1:0.7119524870081679 2:0.7123236822568667 3:0.6962015503875965 4:0.7001275414509696 5:0.010690705960962 6:0.6654861075368879 
-64.0 1:0.7123236822568667 2:0.711507052709724 3:0.7131782945736435 4:0.7185835396503847 5:0.012536765114420145 6:0.6506166256522405 
-64.0 1:0.711507052709724 2:0.7043801039346714 3:0.6957364341085271 4:0.7067296871483221 5:0.008628708052723304 6:0.6186563040835603 
-64.0 1:0.7043801039346714 2:0.6889383815887146 3:0.6844186046511626 4:0.6954760297096545 5:0.011666970536355011 6:0.5967853889479175 
64.0 1:0.6889383815887146 2:0.688492947290274 3:0.6736434108527138 4:0.6842223722709869 5:0.008977124743110304 6:0.580372944408534 
64.0 1:0.688492947290274 2:0.6863400148478095 3:0.6846511627906989 4:0.6960762247730495 5:0.009274996911207006 6:0.5924734741860864 
64.0 1:0.686117297698591 2:0.7031922791388265 3:0.6838759689922466 4:0.6917248105634319 5:0.007061071165244056 6:0.6002129413823591 
-64.0 1:0.7028953229398661 2:0.7028953229398661 3:0.6821705426356589 4:0.7065046139995472 5:0.0038610297767491747 6:0.5921850092734898 
-64.0 1:0.7034892353377868 2:0.6925018559762426 3:0.68139534883721 4:0.6842223722709869 5:0.009151445191486036 6:0.5674737771009695 
64.0 1:0.6927245731254645 2:0.6762435040831464 3:0.6705426356589147 4:0.6842223722709869 5:0.004094498666651757 6:0.563828794023017 
64.0 1:0.6762435040831464 2:0.6836674090571627 3:0.6665891472868201 4:0.6849726161002307 5:0.004675024995856736 6:0.5841920865702319 
64.0 1:0.6838158871566429 2:0.6993318485523381 3:0.68139534883721 4:0.6915747617975831 5:0.007769745444641647 6:0.601748364829414 
64.0 1:0.6993318485523381 2:0.7016332590942828 3:0.6821705426356589 4:0.7036536874484206 5:0.005683281016880119 6:0.6152506863272309 
64.0 1:0.7016332590942828 2:0.702746844840386 3:0.6961240310077533 4:0.7086052967214332 5:0.011267266640095409 6:0.6405375183371013 
-64.0 1:0.702746844840386 2:0.7156644394951761 3:0.6994573643410854 4:0.7108560282091682 5:0.006397041978171631 6:0.6393012944310256 
64.0 1:0.7146250927988114 2:0.7028210838901277 3:0.6941860465116293 4:0.7065046139995472 5:0.006502979485383896 6:0.6432050688762608 
-64.0 1:0.707423904974017 2:0.7057164068299931 3:0.687441860465115 4:0.7089804186360569 5:0.004096698691603122 6:0.6190537261490295 
-64.0 1:0.7057164068299931 2:0.6873793615441709 3:0.6850387596899217 4:0.694350663965787 5:0.006230008236641185 6:0.5949275735108727 
64.0 1:0.6873793615441709 2:0.6797327394209359 3:0.6679069767441849 4:0.6692174956860968 5:0.016077221828669986 6:0.5975504222241244 
-64.0 1:0.692279138827024 2:0.6834446919079441 3:0.6710852713178307 4:0.691799834946358 5:0.0025024092725474565 6:0.543527337298 
12.075442726009712 1:0.6838158871566429 2:0.6481069042316246 3:0.6633333333333346 4:0.6467101808087616 5:0.02184068464664383 6:0.5294545164749305 
-59.47994465822945 1:0.6481069042316246 2:0.6558277654046014 3:0.6463565891472877 4:0.6467101808087616 5:0.013551859429559873 6:0.5202043121490332 
-64.0 1:0.6556792873051213 2:0.6504083147735693 3:0.6354263565891457 4:0.6467101808087616 5:0.013957813078229088 6:0.5006106924426955 
64.0 1:0.650334075723831 2:0.6337787676317743 3:0.6283720930232554 4:0.6091979893465365 5:0.024080674382476464 6:0.4925018606698318 
64.0 1:0.6337787676317743 2:0.6302152932442464 3:0.620775193798449 4:0.6349313526896218 5:0.012029245982645839 6:0.5074222825455791 
-64.0 1:0.6300668151447661 2:0.6385300668151439 3:0.6272093023255803 4:0.6392077425163166 5:0.013339227718655259 6:0.5047460472208753 
64.0 1:0.6392724573125448 2:0.6219005196733489 3:0.616124031007752 4:0.6270537924825564 5:0.00834106530000556 6:0.532339635697173 
64.0 1:0.6219005196733489 2:0.6374907201187825 3:0.619379844961241 4:0.6305049140970814 5:0.008872168138742597 6:0.5655656799701136 
64.0 1:0.6374907201187825 2:0.6435040831477353 3:0.6251162790697664 4:0.6430339860454652 5:0.007790134210910675 6:0.601891732852927 
64.0 1:0.644840386043057 2:0.6504083147735693 3:0.6406201550387587 4:0.6499362292745118 5:0.011834971167832237 6:0.6478420260368907 
-64.0 1:0.6504825538233111 2:0.6648106904231614 3:0.6463565891472877 4:0.6579638382474292 5:0.005454912821769239 6:0.6619845003663761 
64.0 1:0.6654046028210856 2:0.6512249443207121 3:0.6416279069767441 4:0.6518868632305491 5:0.006861219217114254 6:0.6876096668234732 
64.0 1:0.6522642910170734 2:0.6630289532293991 3:0.639147286821704 4:0.6577387650986544 5:0.004156589816712277 6:0.7085557575287019 
64.0 1:0.6629547141796573 2:0.6665924276169272 3:0.6463565891472877 4:0.6677170080276091 5:0.006528945384969123 6:0.7380247346275011 
-64.0 1:0.6671121009651061 2:0.6801781737193765 3:0.6744186046511628 4:0.6746192512566558 5:0.014778912836510805 6:0.732563038489606 
-64.0 1:0.6801781737193765 2:0.6633259094283596 3:0.6637209302325573 4:0.6624653012228956 5:0.010712734236271216 6:0.7220150509247542 
64.0 1:0.6631774313288793 2:0.6596139569413514 3:0.6470542635658899 4:0.6467101808087616 5:0.013869167486876605 6:0.7120840708784434 
-64.0 1:0.6591685226429108 2:0.65857461024499 3:0.6434108527131783 4:0.6617900817765778 5:0.0057946275026352296 6:0.6956190889253691 
64.0 1:0.6510022271714935 2:0.662138084632518 3:0.6466666666666673 4:0.6542126191012068 5:0.007701348490580397 6:0.695075827487632 
-64.0 1:0.6599109131403117 2:0.6481811432813664 3:0.6434108527131783 4:0.657513691949883 5:0.004040394868325494 6:0.5663955341840593 
64.0 1:0.6492947290274695 2:0.5688938381588732 3:0.6257364341085255 4:0.5536799459824424 5:0.035085675627732626 6:0.5287569313605978 
-64.0 1:0.5688938381588732 2:0.5893095768374181 3:0.6038759689922487 4:0.5645584815064898 5:0.031104387162240642 6:0.5427238312180551 
-64.0 1:0.5893095768374181 2:0.6123236822568681 3:0.590852713178293 4:0.5788131142621327 5:0.015279369467804293 6:0.5442398102529941 
-64.0 1:0.6123979213066065 2:0.6003711952487009 3:0.5887596899224792 4:0.59576862480306 5:0.013554718060706872 6:0.47835003115992714 
-64.0 1:0.6006681514476612 2:0.5411284335560502 3:0.5756589147286839 4:0.549178483006976 5:0.020218383444927143 6:0.4824607116421753 
64.0 1:0.5411284335560502 2:0.5674090571640679 3:0.5426356589147286 4:0.5266711681296409 5:0.024892581679814896 6:0.5076928689720529 
-64.0 1:0.5674090571640679 2:0.5756495916852269 3:0.5530232558139546 4:0.5746867732012899 5:0.013086841416750487 6:0.5153707337576242 
64.0 1:0.5758723088344455 2:0.5603563474387536 3:0.5482170542635644 4:0.5567559456823472 5:0.008175741132004201 6:0.5667604571734699 
64.0 1:0.5883444691907952 2:0.5873793615441723 3:0.5775193798449613 4:0.5829394553229788 5:0.012246067549986493 6:0.6396153452751566 
-64.0 1:0.5873051224944305 2:0.5888641425389741 3:0.5774418604651146 4:0.5941931127616463 5:0.0053924293105708935 6:0.6467917847607452 
64.0 1:0.5888641425389741 2:0.5741648106904217 3:0.5635658914728668 4:0.5752119438817589 5:0.007723110520831805 6:0.6861301900386768 
64.0 1:0.5740905716406832 2:0.5980697847067562 3:0.5736434108527132 4:0.5782879435816637 5:0.012266638483926652 6:0.7306365473917709 
64.0 1:0.5976243504083156 2:0.6118782479584275 3:0.586976744186045 4:0.5988446245029615 5:0.009059772814213203 6:0.7928314882198063 
64.0 1:0.6387527839643659 2:0.6293986636971036 3:0.6260465116279087 4:0.6317053042238716 5:0.007674850100879551 6:0.8251455357858666 
64.0 1:0.6305864884929485 2:0.6297698589458058 3:0.614728682170544 4:0.6337309625628316 5:0.006506314555055392 6:0.8238362367744643 
64.0 1:0.6293986636971036 2:0.628953229398663 3:0.6124031007751938 4:0.6362067671993379 5:0.007468033742553388 6:0.8166068349148722 
64.0 1:0.628953229398663 2:0.6290274684484048 3:0.6116279069767449 4:0.6362067671993379 5:0.008470656578669451 6:0.828229802275164 
-64.0 1:0.6290274684484048 2:0.6469190794357832 3:0.6222480620155038 4:0.636281791582264 5:0.0044805820262697835 6:0.8061033364127159 
64.0 1:0.6469190794357832 2:0.6296213808463256 3:0.627906976744186 4:0.6362067671993379 5:0.012316706567692447 6:0.8062603674046993 
-64.0 1:0.6459539717891603 2:0.6569413511507045 3:0.6356589147286822 4:0.6446845224698017 5:0.014291137877707675 6:0.8048342858888198 
-64.0 1:0.6575352635486253 2:0.6530066815144777 3:0.6434108527131783 4:0.6505364243379103 5:0.011784188426279691 6:0.7661988683847084 
-64.0 1:0.6530066815144777 2:0.6326651818856712 3:0.6317054263565874 4:0.6333558406482079 5:0.012935712314199658 6:0.723523809462394 
-64.0 1:0.6334075723830722 2:0.6226429101707498 3:0.6090697674418617 4:0.605221697051539 5:0.01925248841389089 6:0.6765023677971059 
64.0 1:0.6226429101707498 2:0.609502598366741 3:0.5986046511627892 4:0.6089729161977616 5:0.009706524098323626 6:0.6603128668475182 
-64.0 1:0.6092798812175191 2:0.620935412026726 3:0.5994573643410847 4:0.6131742816415338 5:0.008198343936122373 6:0.6239637723408414 
-64.0 1:0.5999999999999986 2:0.6143281365998523 3:0.5891472868217055 4:0.59659389301523 5:0.0073791499319386545 6:0.5855520535696985 
64.0 1:0.5895322939866366 2:0.593615441722347 3:0.579069767441859 4:0.5878910645959914 5:0.012603578611032321 6:0.5936761596251287 
-64.0 1:0.593615441722347 2:0.603860430586487 3:0.5813953488372093 4:0.5959186735689088 5:0.007655470263250642 6:0.5989591611005866 
64.0 1:0.6025241276911653 2:0.5979955456570144 3:0.5772093023255817 4:0.5958436491859828 5:0.010489130426405332 6:0.6278174484703711 
64.0 1:0.5982925018559747 2:0.6151447661469918 3:0.5891472868217055 4:0.606121989646635 5:0.011411347255063198 6:0.6623392880504484 
-64.0 1:0.6132145508537492 2:0.6262806236080163 3:0.6124031007751938 4:0.6216520369119941 5:0.016741867583244707 6:0.6663455984784398 
-64.0 1:0.6277654046028215 2:0.611952487008166 3:0.6031007751937999 4:0.6022957461174865 5:0.00965766112376686 6:0.6573471964031571 
64.0 1:0.611952487008166 2:0.602598366740907 3:0.5879844961240303 4:0.6024457948833352 5:0.007220383800098054 6:0.6584562371805498 
64.0 1:0.6021529324424632 2:0.6072754268745348 3:0.5875968992248076 4:0.6103983794733265 5:0.005499824159152214 6:0.6737132943024543 
64.0 1:0.6183370452858209 2:0.6155159613956939 3:0.5928682170542637 4:0.6174506714682253 5:0.003152789897182745 6:0.6969199181042282 
64.0 1:0.6155159613956939 2:0.6264291017074998 3:0.6043410852713181 4:0.620451646785204 5:0.005632918662260955 6:0.7192261297030469 
-64.0 1:0.6367483296213816 2:0.6556050482553828 3:0.6356589147286822 4:0.6366569134968842 5:0.010137084395493467 6:0.752263071074705 
-64.0 1:0.6556050482553828 2:0.6406087602078699 3:0.6334883720930217 4:0.6449095956185765 5:0.008671475416746031 6:0.7388156893232583 
64.0 1:0.640386043058648 2:0.6348923533778775 3:0.6154263565891464 4:0.6242028659314265 5:0.006406696864741639 6:0.7353464022087659 
64.0 1:0.6345211581291753 2:0.6423162583518939 3:0.6183720930232557 4:0.643184034811314 5:0.003913480053137469 6:0.7355824816131479 
-64.0 1:0.6416481069042312 2:0.6477357089829259 3:0.627906976744186 4:0.6482106684672493 5:0.005309879329752449 6:0.7198179867739682 
-64.0 1:0.6477357089829259 2:0.6388270230141042 3:0.624031007751938 4:0.6321554505214179 5:0.00918012959324047 6:0.6929688160285061 
-64.0 1:0.6388270230141042 2:0.6285077951002225 3:0.6142635658914711 4:0.6301297921824578 5:0.004594955297945245 6:0.6475856267562059 
64.0 1:0.6285077951002225 2:0.6079435783221974 3:0.6030232558139532 4:0.6016955510540913 5:0.017602834035708816 6:0.6283762081939257 
-64.0 1:0.6152190051967334 2:0.611952487008166 3:0.592790697674417 4:0.6118238427488915 5:0.009551569474679021 6:0.5811941441761359 
64.0 1:0.5927988121752042 2:0.6023014105419466 3:0.5891472868217055 4:0.5866906744692013 5:0.012555009907328923 6:0.5868812129492826 
64.0 1:0.6086859688195984 2:0.6056421677802527 3:0.5930232558139535 4:0.6037962337759775 5:0.006180808952537713 6:0.6100538911038061 
-64.0 1:0.6049740163325902 2:0.6134372680029712 3:0.5930232558139535 4:0.6136994523220027 5:0.003818738851250946 6:0.6258503763161424 
64.0 1:0.6134372680029712 2:0.6151447661469918 3:0.5890697674418588 4:0.6016955510540913 5:0.009190863472939488 6:0.6368874971535246 
-64.0 1:0.6147735708982929 2:0.6071269487750546 3:0.5889922480620157 4:0.6121989646635151 5:0.003406157101932074 6:0.6210223689016849 
-64.0 1:0.6070527097253162 2:0.5942093541202678 3:0.5839534883720925 4:0.6016955510540913 5:0.007730789588814916 6:0.6046481233529627 
-64.0 1:0.5942093541202678 2:0.5867112100965096 3:0.5891472868217055 4:0.549178483006976 5:0.045359189596006336 6:0.5683097296481348 
-64.0 1:0.5867112100965096 2:0.5632516703786191 3:0.5611627906976734 4:0.5698101883111999 5:0.013528177632312689 6:0.5259682051957534 
-64.0 1:0.5656273199703056 2:0.5432071269487764 3:0.5422480620155025 4:0.534173606422086 5:0.03441284634085474 6:0.4196236733870381 
64.0 1:0.5432071269487764 2:0.47349665924276046 3:0.5162790697674412 4:0.45164678520519047 5:0.0647435253651036 6:0.39352143070930706 
64.0 1:0.47349665924276046 2:0.49391239792130537 3:0.484341085271318 4:0.47415410008252556 5:0.038739384581835574 6:0.4046479433482614 
64.0 1:0.49398663697104717 2:0.5025241276911666 3:0.495348837209303 4:0.4972616100232558 5:0.02070890493169504 6:0.44740606921048187 
-64.0 1:0.5027468448403852 2:0.5177431328878981 3:0.500542635658916 4:0.5079900967814543 5:0.017219343062179975 6:0.4880589376299137 
-64.0 1:0.5178916109873783 2:0.5158129175946556 3:0.5 4:0.5116662915447509 5:0.01230665931998462 6:0.5469770846031092 
-64.0 1:0.5152932442464733 2:0.5060876020786946 3:0.4892248062015514 4:0.5041638532523057 5:0.009694697212597813 6:0.5486197600851151 
-64.0 1:0.5060876020786946 2:0.48819599109131295 3:0.48007751937984366 4:0.4591492234976355 5:0.024684770405746397 6:0.5093954296989726 
-64.0 1:0.4877505567928724 2:0.4479584261321438 3:0.4728682170542636 4:0.40670717983344623 5:0.04196324789655544 6:0.5170407543443198 
-64.0 1:0.4479584261321438 2:0.46302895322939847 3:0.43139534883721 4:0.42171205641833637 5:0.03325638991291643 6:0.5431981194731003 
-64.0 1:0.5181885671863387 2:0.5237564959168509 3:0.5271317829457365 4:0.5116662915447509 5:0.032614613207517684 6:0.7701696219571434 
-64.0 1:0.523236822568672 2:0.5185597624350409 3:0.5034883720930219 4:0.5116662915447509 5:0.011026356901471966 6:0.7765281343927907 
-64.0 1:0.5077951002227186 2:0.5121752041573858 3:0.4883720930232558 4:0.502588341210892 5:0.008945609736004433 6:0.7589649609707302 
-64.0 1:0.5123979213066079 2:0.4890126206384557 3:0.49612403100775193 4:0.4966614149598607 5:0.0165626286077484 6:0.7362024343421835 
64.0 1:0.4890126206384557 2:0.48440979955456637 3:0.4678294573643404 4:0.470327856553377 5:0.028787620759474674 6:0.7438784556360284 
64.0 1:0.48440979955456637 2:0.5014847809948019 3:0.4883720930232558 4:0.4869832695626069 5:0.02221014870949549 6:0.7581340959800869 
-64.0 1:0.5092056421677786 2:0.5103934669636235 3:0.49457364341085414 4:0.5041638532523057 5:0.011167592898190538 6:0.7451697710175953 
-64.0 1:0.4888641425389755 2:0.5040089086859686 3:0.481085271317829 4:0.4891589766674157 5:0.017890098440186512 6:0.7384300743238437 
-64.0 1:0.5042316258351905 2:0.49621380846325003 3:0.4806201550387597 4:0.49065946432590335 5:0.00893585675914997 6:0.7309018440539039 
64.0 1:0.5246473645137355 2:0.5294729027468434 3:0.5116279069767442 4:0.5199189736664397 5:0.015865010504698754 6:0.8503566220124675 
64.0 1:0.5294729027468434 2:0.5737936154417228 3:0.5503875968992248 4:0.5357491184634997 5:0.03152546072761383 6:0.9005367252003291 
-64.0 1:0.5737936154417228 2:0.5873793615441723 3:0.5720930232558153 4:0.5716857978843112 5:0.030721246511156285 6:0.9037181135848964 
64.0 1:0.5873793615441723 2:0.5741648106904217 3:0.5875968992248076 4:0.5734113586915737 5:0.025565172747430535 6:0.9004500959311525 
-64.0 1:0.5741648106904217 2:0.5796585003711955 3:0.5736434108527132 4:0.579938480006 5:0.012496548097793266 6:0.8350039962155812 
64.0 1:0.5796585003711955 2:0.5394951744617682 3:0.5618604651162792 4:0.541676044714531 5:0.022755951078003118 6:0.8447743046741951 
-64.0 1:0.5394951744617682 2:0.5870824053452118 3:0.5637209302325565 4:0.5455773126266023 5:0.02059570874343305 6:0.834005773224828 
64.0 1:0.587230883444692 2:0.5820341499628819 3:0.563953488372093 4:0.57303623677695 5:0.01037826037917472 6:0.8684113106791386 
64.0 1:0.5819599109131401 2:0.6227171492204916 3:0.6271317829457371 4:0.5904418936154238 5:0.03554099671527866 6:0.907495090760938 
64.0 1:0.650111358574609 2:0.6446176688938385 3:0.627906976744186 4:0.6433340835771627 5:0.020485062902566905 6:0.9391959796561491 
-64.0 1:0.6446176688938385 2:0.6914625092798812 3:0.6744186046511628 4:0.6504613999549842 5:0.03676426663982916 6:0.9147757461983349 
-64.0 1:0.6918337045285834 2:0.6706013363028956 3:0.6714728682170534 4:0.6656913496886492 5:0.03023697477679801 6:0.8703566212657355 
64.0 1:0.6706013363028956 2:0.661915367483296 3:0.6555038759689918 4:0.6467101808087616 5:0.029006824519437827 6:0.8312725293809312 
-64.0 1:0.6623608017817366 2:0.6658500371195262 3:0.6515503875969006 4:0.6683172030910042 5:0.01616124316375527 6:0.7809517879993971 
64.0 1:0.6658500371195262 2:0.6569413511507045 3:0.6558139534883713 4:0.6564633505889416 5:0.02528488676604698 6:0.7464746070864047 
-64.0 1:0.6641425389755022 2:0.6574610244988869 3:0.6417829457364338 4:0.6617150573936518 5:0.006138686181812836 6:0.6450406816649261 
64.0 1:0.6573867854491451 2:0.636302895322941 3:0.6434108527131783 4:0.6317053042238716 5:0.02349587411944877 6:0.6243472906840379 
-64.0 1:0.6374907201187825 2:0.6541202672605775 3:0.6297674418604634 4:0.6441593517893293 5:0.012894808665581592 6:0.5849751731930147 
64.0 1:0.6530066815144777 2:0.6364513734224212 3:0.6362790697674413 4:0.6407082301748043 5:0.009280153657589826 6:0.5830650150635847 
64.0 1:0.6558277654046014 2:0.6515961395694142 3:0.6320930232558136 4:0.649786180508663 5:0.006728082675312176 6:0.5815208149678005 
64.0 1:0.6614699331848555 2:0.6623608017817366 3:0.6589147286821705 4:0.6617150573936518 5:0.020900587360419453 6:0.6032025700710413 
-64.0 1:0.671863400148479 2:0.6663697104677052 3:0.6511627906976745 4:0.6734188611298656 5:0.005355239079864366 6:0.5793589561002209 
64.0 1:0.6663697104677052 2:0.6523385300668152 3:0.6445736434108534 4:0.6584139845449756 5:0.012612869162260064 6:0.5741322809108395 
64.0 1:0.6523385300668152 2:0.6597624350408315 3:0.6356589147286822 4:0.6559381799084693 5:0.008549997605896415 6:0.5781970146049255 
-64.0 1:0.6597624350408315 2:0.6653303637713438 3:0.6459689922480615 4:0.6646410083277043 5:0.009938942020892754 6:0.5590270533083737 
64.0 1:0.6479584261321445 2:0.6374907201187825 3:0.6282945736434122 4:0.6467101808087616 5:0.008289385732995133 6:0.5293342376269999 
64.0 1:0.6374907201187825 2:0.6420193021529335 3:0.6351162790697662 4:0.6467101808087616 5:0.014685628975993341 6:0.5276989791448826 
-64.0 1:0.6421677802524136 2:0.6341499628804765 3:0.6248062015503869 4:0.6392077425163166 5:0.009246971115648206 6:0.4866616365032621 
-64.0 1:0.6337787676317743 2:0.6047512991833716 3:0.6107751937984494 4:0.6016955510540913 5:0.02945031872125806 6:0.45303012440372137 
64.0 1:0.6047512991833716 2:0.5902746844840376 3:0.587286821705428 4:0.5866906744692013 5:0.009002908475024397 6:0.46968471797682737 
64.0 1:0.5904231625835178 2:0.6126948775055668 3:0.5962015503875958 4:0.5985445269712639 5:0.012584310876585647 6:0.49478617404498276 
64.0 1:0.6125463994060867 2:0.6172976985894596 3:0.5991472868217051 4:0.6173756470853026 5:0.005977916205589781 6:0.5394324414070992 
64.0 1:0.6172976985894596 2:0.6339272457312546 3:0.6124031007751938 4:0.6197764273388828 5:0.0048396064802757885 6:0.5771076397565199 
-64.0 1:0.6356347438752784 2:0.6370452858203419 3:0.6157364341085259 4:0.6332057918823593 5:0.0116364364320937 6:0.5816651216149248 
64.0 1:0.6364513734224212 2:0.6188567186339999 3:0.6160465116279055 4:0.6107735013879502 5:0.0066997906346955675 6:0.5855672823003983 
-64.0 1:0.6185597624350395 2:0.6165553080920553 3:0.6016279069767452 4:0.6242028659314265 5:0.0027280729783869125 6:0.5824544500915056 
64.0 1:0.6090571640683005 2:0.6219747587230873 3:0.5962015503875958 4:0.6091979893465365 5:0.004883382772938633 6:0.6095612917623623 
64.0 1:0.6339272457312546 2:0.6369710467706001 3:0.6124031007751938 4:0.6311801335433992 5:0.004481632993603238 6:0.6845237459146097 
64.0 1:0.6372680029695605 2:0.6363771343726794 3:0.6255813953488358 4:0.6392077425163166 5:0.01186664031681368 6:0.7082568629611422 
64.0 1:0.6440979955456562 2:0.6449888641425406 3:0.6277519379844962 4:0.647760522169703 5:0.0014250556525738536 6:0.7274414675056633 
64.0 1:0.64580549368968 2:0.6517446176688945 3:0.6324806201550399 4:0.6536874484207343 5:0.0026142602226226263 6:0.7567642490639109 
-64.0 1:0.6517446176688945 2:0.6738678544914632 3:0.6581395348837217 4:0.6593893015229942 5:0.004886563700734558 6:0.7336980095499698 
-64.0 1:0.6738678544914632 2:0.6454342984409812 3:0.6511627906976745 4:0.6527121314427191 5:0.003078577590543043 6:0.7184846852861884 
64.0 1:0.6444691907943583 2:0.6482553823311049 3:0.6320930232558136 4:0.6424337909820668 5:0.006716227763790803 6:0.7292273938821116 
-64.0 1:0.6659242761692645 2:0.6570155902004463 3:0.6420930232558134 4:0.6653912521569482 5:6.57148854262738E-4 6:0.6862372475410288 
64.0 1:0.6570155902004463 2:0.6452115812917593 3:0.6361240310077515 4:0.6527121314427191 5:0.003131756537615865 6:0.672500808176284 
64.0 1:0.6452115812917593 2:0.6506310319227914 3:0.6277519379844962 4:0.6537624728036604 5:0.0015286109671636188 6:0.6736627625638362 
64.0 1:0.6506310319227914 2:0.6597624350408315 3:0.6412403100775178 4:0.6580388626303553 5:0.002899464731126753 6:0.6739913616820652 
-64.0 1:0.6595397178916096 2:0.6609502598366731 3:0.6434108527131783 4:0.6686173006227017 5:0.0020338319837021027 6:0.6624794035156724 
64.0 1:0.6609502598366731 2:0.6532293986636963 3:0.6375968992248062 4:0.6542126191012068 5:0.004088164836855468 6:0.6630509052965644 
64.0 1:0.6682256867112092 2:0.6573125463994067 3:0.6465891472868206 4:0.666216520369118 5:0.0019688822024945844 6:0.6512551263877785 
-64.0 1:0.6579806978470693 2:0.6570898292501848 3:0.6375193798449595 4:0.666216520369118 5:0.002405257852242877 6:0.6058224945189381 
-64.0 1:0.6567928730512244 2:0.6260579064587977 3:0.6353488372093026 4:0.633655938179909 5:0.006715947505835216 6:0.5837165703654592 
64.0 1:0.6292501855976235 2:0.6296213808463256 3:0.6118604651162778 4:0.6199264761047316 5:0.008112711117792461 6:0.5731301561714376 
-64.0 1:0.6296213808463256 2:0.629695619896064 3:0.6124806201550405 4:0.6324555480531154 5:0.003908351332550208 6:0.5545465560465747 
64.0 1:0.629695619896064 2:0.6171492204899793 3:0.610852713178296 4:0.6174506714682253 5:0.006961523539419198 6:0.5738993638550879 
64.0 1:0.6357832219747587 2:0.6377876763177429 3:0.6172093023255806 4:0.6317053042238716 5:0.007617004858846189 6:0.6173739159782019 
64.0 1:0.6517446176688945 2:0.6430586488492948 3:0.6319379844961239 4:0.6467101808087616 5:0.0029065972960964676 6:0.6560972232104818 
64.0 1:0.639643652561247 2:0.639866369710469 3:0.6201550387596899 4:0.6427338885137642 5:0.001494503573968559 6:0.6768531290919282 
64.0 1:0.6397921306607272 2:0.6607275426874545 3:0.6471317829457366 4:0.6475354490209315 5:0.0042105674989585265 6:0.7166143416415248 
64.0 1:0.6607275426874545 2:0.6798812175204161 3:0.6589147286821705 4:0.6686923250056244 5:0.005542759677948297 6:0.7877878450426903 
64.0 1:0.6800296956198963 2:0.7189309576837403 3:0.6976744186046512 4:0.6878235426513607 5:0.018468466783133464 6:0.8614431740042323 
-64.0 1:0.7189309576837403 2:0.7476614699331862 3:0.7365116279069784 4:0.7228599294770796 5:0.026400159287411636 6:0.8580632448599971 
64.0 1:0.7471417965850038 2:0.7177431328878988 3:0.7274418604651174 4:0.7185835396503847 5:0.01500534725172813 6:0.8659832003984617 
-64.0 1:0.7177431328878988 2:0.7350408314773563 3:0.7364341085271318 4:0.727436416835472 5:0.010634107866831003 6:0.8437122728426659 
-64.0 1:0.7354120267260585 2:0.7236080178173714 3:0.7191472868217053 4:0.7292370020256572 5:0.005360830226078347 6:0.7770334080985346 
64.0 1:0.7236080178173714 2:0.6913882702301428 3:0.7089922480620158 4:0.699227248855877 5:0.008034308954716718 6:0.7490789641822537 
64.0 1:0.6913882702301428 2:0.7091314031180409 3:0.6882170542635675 4:0.699227248855877 5:0.004680910412924085 6:0.7289445345134543 
-64.0 1:0.7135115070527083 2:0.7338530066815148 3:0.7189922480620154 4:0.7142321254407671 5:0.00774935667837262 6:0.7316121085767685 
64.0 1:0.7337045285820346 2:0.7321455085374909 3:0.7148062015503879 4:0.7252607097306598 5:0.004644897265631026 6:0.7498158438751874 
-64.0 1:0.7321455085374909 2:0.7544172234595399 3:0.7364341085271318 4:0.7410158301447971 5:0.00528534274574072 6:0.7299603350796594 
64.0 1:0.7414253897550114 2:0.737342242019301 3:0.7268992248062014 4:0.743791732313001 5:0.005325924097709862 6:0.6817382206605281 
-64.0 1:0.7369710467706022 2:0.7394951744617655 3:0.7220930232558147 4:0.7449921224397911 5:0.0037151835366611803 6:0.6479717426009322 
-64.0 1:0.739420935412027 2:0.7249443207126965 3:0.7234883720930227 4:0.7282616850476386 5:0.01256228260127643 6:0.6069357485211613 
64.0 1:0.7248700816629547 2:0.711729769858946 3:0.7057364341085268 4:0.7067296871483221 5:0.0034325994400418018 6:0.5779417563887318 
64.0 1:0.711729769858946 2:0.7097995545657001 3:0.689922480620155 4:0.7168579788431222 5:0.003303568677289088 6:0.5717326884506408 
-64.0 1:0.7093541202672595 2:0.7185597624350415 3:0.7003875968992241 4:0.7147572961212395 5:0.004478059704669491 6:0.5420799364027169 
-64.0 1:0.7167037861915374 2:0.6971046770601352 3:0.7038759689922495 4:0.7056043214044546 5:0.005637669034608173 6:0.5012326036364985 
64.0 1:0.6976243504083143 2:0.6769116555308089 3:0.676201550387597 4:0.6767199339785418 5:0.01602576646802403 6:0.4924707359614709 
64.0 1:0.6768374164810705 2:0.6855976243504086 3:0.6727906976744183 4:0.6767199339785418 5:0.009664135082540942 6:0.48583890272404656 
-64.0 1:0.6855976243504086 2:0.6794357832219755 3:0.6688372093023272 4:0.6829469577612707 5:0.005614996166001102 6:0.3992284755364745 
64.0 1:0.6801039346696347 2:0.6083890126206379 3:0.663255813953488 4:0.6073223797734252 5:0.01502587614697495 6:0.3595254864227428 
64.0 1:0.60876020786934 2:0.6097995545657015 3:0.5874418604651178 4:0.6017705754370175 5:0.014841410360606929 6:0.3297958430388174 
64.0 1:0.6097995545657015 2:0.5936896807720854 3:0.5841085271317823 4:0.6001950633956037 5:0.005820243079775974 6:0.34528609522598824 
-64.0 1:0.5960653303637719 2:0.6065330363771338 3:0.5909302325581397 4:0.6031210143296564 5:0.005242098943193492 6:0.34115309169244123 
-64.0 1:0.6064587973273954 2:0.581588715664438 3:0.5843410852713187 4:0.5791882361767562 5:0.008309970679833073 6:0.37691202341202296 
64.0 1:0.5831477357089817 2:0.5971046770601333 3:0.5783720930232568 4:0.549178483006976 5:0.02237290851720322 6:0.4619993732311336 
64.0 1:0.5971046770601333 2:0.6328878990348932 3:0.6165116279069783 4:0.5858654062570314 5:0.012291609467769542 6:0.5531871503587905 
-64.0 1:0.6328878990348932 2:0.6523385300668152 3:0.650930232558138 4:0.6394328156650915 5:0.014096835037098516 6:0.6001981077148416 
-64.0 1:0.6542687453600611 2:0.6374907201187825 3:0.632558139534883 4:0.6338810113286804 5:0.008723309125632031 6:0.6281358735156759 
-64.0 1:0.6374907201187825 2:0.6312546399406077 3:0.6201550387596899 4:0.6242778903143527 5:0.006210810566683407 6:0.6183271546396069 
64.0 1:0.6057164068299911 2:0.6024498886414269 3:0.5887596899224792 4:0.6022207217345638 5:0.006101972389630807 6:0.6477578600546351 
64.0 1:0.6024498886414269 2:0.6268745360059403 3:0.627906976744186 4:0.6076975016880488 5:0.008622948751735969 6:0.6831127331411547 
-25.22321271191981 1:0.6273942093541194 2:0.6346696362286555 3:0.6261240310077518 4:0.6302798409483066 5:0.006757621863831152 6:0.7094676445054094 
-64.0 1:0.6365998515219013 2:0.6307349665924288 3:0.6184496124031024 4:0.6350063770725478 5:0.003008975527272763 6:0.7160306199387201 
-64.0 1:0.6307349665924288 2:0.6226429101707498 3:0.6139534883720916 4:0.6242778903143527 5:0.0048184049659355565 6:0.6908411007588745 
-64.0 1:0.6226429101707498 2:0.6044543429844111 3:0.6055038759689932 4:0.6075474529222 5:0.007220089529244686 6:0.6729469068474944 
-64.0 1:0.6040089086859672 2:0.6016332590942841 3:0.5913178294573659 4:0.5866906744692013 5:0.007299794891813912 6:0.6535840076720504 
64.0 1:0.6016332590942841 2:0.5933184855233866 3:0.5899224806201543 4:0.5934428689324025 5:0.0071654392279050265 6:0.6550088223079507 
64.0 1:0.5933184855233866 2:0.6013363028953238 3:0.584806201550388 4:0.5978693075249427 5:0.005181871508537631 6:0.6660716774365251 
-64.0 1:0.6013363028953238 2:0.6067557535263558 3:0.5847286821705414 4:0.6060469652637089 5:0.0019015782544601265 6:0.6523149743096089 
64.0 1:0.6073496659242766 2:0.5882702301410534 3:0.5899224806201543 4:0.5941931127616463 5:0.00437556937031096 6:0.6548832591801016 
64.0 1:0.5882702301410534 2:0.594357832219748 3:0.5768992248062021 4:0.5943431615274951 5:0.003194422216485342 6:0.666212486094674 
-64.0 1:0.5945805493689665 2:0.5994060876020779 3:0.579069767441859 4:0.5979443319078689 5:0.0022336138673430075 6:0.6430506202829456 
-64.0 1:0.5992576095025977 2:0.5733481811432822 3:0.5791472868217057 4:0.5626078475504525 5:0.010760265985538942 6:0.6197061635488923 
64.0 1:0.5733481811432822 2:0.5631774313288773 3:0.5601550387596916 4:0.5618576037212086 5:0.006127167579838169 6:0.6343972401299851 
64.0 1:0.5812917594654776 2:0.5925018559762439 3:0.5719379844961255 4:0.5828644309400527 5:0.00491706977920031 6:0.7055640178023669 
64.0 1:0.6152190051967334 2:0.6175946547884199 3:0.5940310077519388 4:0.6106984770050241 5:0.00818065965912477 6:0.8242174934042006 
-64.0 1:0.6535263548626568 2:0.6464736451373426 3:0.6323255813953501 4:0.6525620826768703 5:0.00270151853709495 6:0.8273578327925105 
-64.0 1:0.6464736451373426 2:0.6358574610245005 3:0.6272093023255803 4:0.6402580838772579 5:0.003770114095956428 6:0.7862397906005604 
-64.0 1:0.6351893095768378 2:0.6206384558277656 3:0.6231782945736424 4:0.6275789631630254 5:0.0072439254683674455 6:0.7570844778864938 
64.0 1:0.6206384558277656 2:0.6226429101707498 3:0.6024031007751941 4:0.6157251106609628 5:0.007215535337466382 6:0.741703622177576 
-64.0 1:0.6226429101707498 2:0.6285820341499643 3:0.615581395348836 4:0.6307299872458529 5:0.003356145069757396 6:0.7231593818056206 
-64.0 1:0.6282850779510039 2:0.624721603563476 3:0.6097674418604639 4:0.6242028659314265 5:0.0016767833482829936 6:0.6943672052098719 
-64.0 1:0.6241276911655518 2:0.6136599851521898 3:0.6000775193798439 4:0.6135494035561541 5:0.002428112888521078 6:0.6502934027059826 
-64.0 1:0.6136599851521898 2:0.5944320712694864 3:0.593333333333333 4:0.5809137969840187 5:0.013139025448080972 6:0.5802591826676229 
64.0 1:0.5944320712694864 2:0.5603563474387536 3:0.5692248062015491 4:0.5632830669967736 5:0.012552263379364161 6:0.5814046469150204 
64.0 1:0.5603563474387536 2:0.5922791388270219 3:0.5680620155038775 4:0.5668842373771473 5:0.012178371240814213 6:0.5840482857539716 
-64.0 1:0.594135115070526 2:0.5901262063845575 3:0.5717054263565892 4:0.5941931127616463 5:0.005757507336417599 6:0.5704816974725809 
-64.0 1:0.5901262063845575 2:0.5743875278396436 3:0.5658914728682171 4:0.5716857978843112 5:0.00882657016936843 6:0.5277179237919458 
-64.0 1:0.5743875278396436 2:0.5428359317000742 3:0.5503875968992248 4:0.549178483006976 5:0.012122880165607789 6:0.4829167648318235 
64.0 1:0.541945063103193 2:0.5220489977728271 3:0.514263565891474 4:0.48600795258458823 5:0.04408038655755608 6:0.48819694285358267 
-64.0 1:0.5212323682256876 2:0.5396436525612484 3:0.5261240310077511 4:0.5211943881761559 5:0.013608555613975325 6:0.49935293806718783 
64.0 1:0.5374907201187838 2:0.5424647364513719 3:0.5214728682170541 4:0.5265961437467148 5:0.007573018372716653 6:0.5451887421692797 
64.0 1:0.5424647364513719 2:0.5390497401633242 3:0.5214728682170541 4:0.5446019956485836 5:0.0035368694124183167 6:0.58997938956416 
-64.0 1:0.5380103934669629 2:0.5568671121009641 3:0.5325581395348823 4:0.5433265811388674 5:0.008095279072954887 6:0.589424818531353 
-64.0 1:0.5568671121009641 2:0.5288789903489226 3:0.5320155038759699 4:0.5266711681296409 5:0.004000640277325336 6:0.5787624704404769 
-64.0 1:0.5289532293986644 2:0.5151447661469931 3:0.5075968992248063 4:0.5158676569885197 5:0.003943495680180943 6:0.5597267454619678 
-64.0 1:0.5151447661469931 2:0.49918337045285727 3:0.4861240310077522 4:0.4891589766674157 5:0.018972861038702965 6:0.49661136469718126 
-64.0 1:0.49888641425389685 2:0.4515219005196718 3:0.4683720930232564 4:0.45164678520519047 5:0.034446505321320854 6:0.48923926361381015 
64.0 1:0.4515219005196718 2:0.46674090571640664 3:0.4557364341085268 4:0.3991297171580751 5:0.04422679331355525 6:0.5159923183711695 
64.0 1:0.49064587973273777 2:0.4821826280623601 3:0.46705426356589147 4:0.48630805011628575 5:0.007977052254390089 6:0.6515171376749005 
64.0 1:0.48359317000742363 2:0.5155902004454337 3:0.502713178294573 4:0.4874334158601532 5:0.012876339666308342 6:0.7367653599871473 
-64.0 1:0.5446176688938364 2:0.5372680029695619 3:0.5193798449612403 4:0.5405506789706636 5:0.0062964013463199815 6:0.7911487310328756 
-64.0 1:0.537416481069042 2:0.5243504083147751 3:0.5089147286821712 4:0.5214194613249308 5:0.00885807116357652 6:0.7938067714488858 
64.0 1:0.5233853006681521 2:0.5235337787676323 3:0.5020155038759707 4:0.5116662915447509 5:0.01102206895475147 6:0.791415895242775 
64.0 1:0.523236822568672 2:0.5226429101707512 3:0.5116279069767442 4:0.5289218996173758 5:0.012448413793921028 6:0.7961097249976409 
-64.0 1:0.5226429101707512 2:0.5299925760950257 3:0.5077519379844961 4:0.5285467777027522 5:0.007751402561448413 6:0.7716027328480669 
-64.0 1:0.5299925760950257 2:0.5112100965107629 3:0.5036434108527116 4:0.5121914622252232 5:0.010509014728354301 6:0.6990886730651665 
-64.0 1:0.4704528582034148 2:0.48789903489235253 3:0.47209302325581465 4:0.46612649110960813 5:0.025534414436804754 6:0.6042135555839696 
-64.0 1:0.48789903489235253 2:0.43578322197475794 3:0.46007751937984426 4:0.43664190862030033 5:0.020876120840896618 6:0.5427578387193429 
-64.0 1:0.43578322197475794 2:0.41967334818114194 3:0.41852713178294404 4:0.40580688723835023 5:0.05133246753243113 6:0.374625767750266 
-64.0 1:0.41967334818114194 2:0.30935412026726156 3:0.3897674418604667 4:0.3015980193562895 5:0.07631589482854989 6:0.37296374282297856 
64.0 1:0.30935412026726156 2:0.3757238307349647 3:0.34108527131782945 4:0.2571085602820916 5:0.05405557994500414 6:0.3959858576095823 
-64.0 1:0.3818114328136593 2:0.38552338530066743 3:0.36302325581395295 4:0.3705454272638599 5:0.019837512883283056 6:0.4027751275639799 
-64.0 1:0.38552338530066743 2:0.28856718634001444 3:0.36031007751938 4:0.25658338960161925 5:0.0411563151779287 6:0.2985203580250068 
64.0 1:0.28856718634001444 2:0.22798812175204214 3:0.27829457364341154 4:0.2040663215545039 5:0.08114246931389082 6:0.3113090089488612 
64.0 1:0.22798812175204214 2:0.2680772086117277 3:0.2581395348837223 4:0.21914622252232008 5:0.05721072400901382 6:0.347793544157091 
-64.0 1:0.27074981440237456 2:0.2689680772086122 3:0.24085271317829585 4:0.24908095130917418 5:0.028847301691117138 6:0.35318045138221704 
-64.0 1:0.2689680772086122 2:0.23452115812917396 3:0.23596899224806245 4:0.17405656838472372 5:0.04920393638553585 6:0.3946981493515965 
64.0 1:0.23452115812917396 2:0.2436525612472142 3:0.209379844961242 4:0.1890614449696138 5:0.054682250746596675 6:0.48688332140476 
-64.0 1:0.2436525612472142 2:0.2762435040831484 3:0.2496124031007738 4:0.227999099707404 5:0.0459839406306031 6:0.5548612238066902 
64.0 1:0.26733481811432674 2:0.27854491462509307 3:0.24868217054263508 4:0.26408582789406426 5:0.02255646346521558 6:0.7785453472629639 
-64.0 1:0.28040089086859715 2:0.31766889383815905 3:0.30139534883721014 4:0.28299197239102564 5:0.04940213481172767 6:0.8013635325407426 
64.0 1:0.31766889383815905 2:0.2818114328136606 3:0.2803100775193787 4:0.28134143596668926 5:0.03170673157328814 6:0.871871215229278 
64.0 1:0.2818114328136606 2:0.3235337787676317 3:0.2868217054263566 4:0.28726836221772056 5:0.023110813701368638 6:0.9225640767061066 
64.0 1:0.3235337787676317 2:0.3293986636971043 3:0.2975193798449621 4:0.323130017255606 5:0.016540796513008094 6:1.0 
-64.0 1:0.3279138827023024 2:0.3688195991091307 3:0.3385271317829463 4:0.3324330407382396 5:0.030799004080934184 6:0.9942776687886649 
-64.0 1:0.3692650334075713 2:0.33318485523385427 3:0.3333333333333333 4:0.3349838697576686 5:0.021807712298168903 6:0.9766746117983017 
-64.0 1:0.33318485523385427 2:0.3296213808463263 3:0.30201550387596926 4:0.3082751894365646 5:0.022042820697111675 6:0.8980267781501593 
-64.0 1:0.3296213808463263 2:0.28351893095768455 3:0.30155038759689995 4:0.2865931427713994 5:0.020975178015299197 6:0.8790480695088223 
64.0 1:0.28351893095768455 2:0.3118782479584248 3:0.2730232558139519 4:0.26768699827443804 5:0.045009637860899204 6:0.8778434299156824 
-64.0 1:0.3118782479584248 2:0.3244246473645128 3:0.2868992248062032 4:0.3079750919048671 5:0.023537534464546924 6:0.8413726754349942 
-64.0 1:0.3002969561989597 2:0.29695619896065373 3:0.27449612403100665 4:0.29259509340535683 5:0.01149071630808572 6:0.7576512872133905 
64.0 1:0.2973273942093525 2:0.27364513734223994 3:0.2581395348837223 4:0.24908095130917418 5:0.03944315434701037 6:0.7284870526312289 
64.0 1:0.27364513734223994 2:0.27654046028210877 3:0.25248062015504 4:0.2732388026108457 5:0.02134029807983924 6:0.773631432828405 
-64.0 1:0.3257609502598379 2:0.32227171492204837 3:0.29457364341085274 4:0.315102408282692 5:0.033563118232409705 6:0.7994476339954671 
-64.0 1:0.32227171492204837 2:0.3165553080920559 3:0.3023255813953488 4:0.31270162802910834 5:0.031558559192168774 6:0.789550378877584 
-64.0 1:0.3166295471417977 2:0.30979955456570213 3:0.28581395348837124 4:0.3021982144196846 5:0.023264507164213098 6:0.7538867769470983 
64.0 1:0.2891610987379352 2:0.30742390497401567 3:0.27906976744186046 4:0.2841173381348931 5:0.01683627247558452 6:0.7537795386699437 
64.0 1:0.30779510022271783 2:0.3099480326651823 3:0.27906976744186046 4:0.3118013354340157 5:0.008436282940416585 6:0.7611436732997617 
-64.0 1:0.3101707498144009 2:0.31707498144023827 3:0.29294573643410826 4:0.3159276764948585 5:0.0266443900828088 6:0.7481421629792838 
-64.0 1:0.30482553823311065 2:0.31121009651076564 3:0.2735658914728679 4:0.3015980193562895 5:0.018456121420189812 6:0.7019909813599009 
-64.0 1:0.3114328136599842 2:0.28040089086859715 3:0.2737209302325577 4:0.26408582789406426 5:0.08007830183072764 6:0.6719827577399867 
-64.0 1:0.27809948032665244 2:0.2786191536748314 3:0.2540310077519378 4:0.2707629979743394 5:0.028371073360084233 6:0.6454843939049445 
-64.0 1:0.2807720861172959 2:0.27720861172976796 3:0.24496124031007682 4:0.269112461550003 5:0.052923253727041944 6:0.5978116656835851 
-64.0 1:0.2760207869339264 2:0.24209354120267051 3:0.23875968992248203 4:0.22657363643183903 5:0.062120675236142196 6:0.5614935640564008 
64.0 1:0.24209354120267051 2:0.2325167037861897 3:0.22503875968992404 4:0.19656388326205887 5:0.14623308014409236 6:0.5949132473068443 
64.0 1:0.2325167037861897 2:0.27074981440237456 3:0.24015503875969008 4:0.22657363643183903 5:0.11475673462319536 6:0.6583564681671973 
64.0 1:0.27074981440237456 2:0.29955456570155875 3:0.2627906976744193 4:0.27203841248405564 5:0.09150859452358859 6:0.7377482526293664 
64.0 1:0.29955456570155875 2:0.3288047512991835 3:0.3027906976744182 4:0.30009753169780184 5:0.13781254770077983 6:0.8203454721645945 
64.0 1:0.3288047512991835 2:0.35619896065330425 3:0.3643410852713178 4:0.33295821141870857 5:0.26290125810178455 6:0.8926544829558342 
64.0 1:0.35619896065330425 2:0.37765404602821057 3:0.3567441860465115 4:0.35951684297396375 5:0.20615060555266398 6:0.937887169265597 
-64.0 1:0.37416481069042434 2:0.3862657757980684 3:0.3798449612403101 4:0.3803736214269625 5:0.21832055504191278 6:0.9343048069562486 
-64.0 1:0.3861172976985882 2:0.3720861172976983 3:0.3643410852713178 4:0.36911996398829494 5:0.1314110916598077 6:0.9106545800159525 
-64.0 1:0.36651818856718604 2:0.3622123236822571 3:0.35480620155038745 4:0.3624427939080198 5:0.06534288502892409 6:0.8227401836754381 
64.0 1:0.3461024498886411 2:0.3686711210096505 3:0.33542635658914716 4:0.3466126491109598 5:0.04907442918425863 6:0.7975565234618796 
-2.4121426537248727 1:0.3681514476614681 2:0.37564959168522627 3:0.35658914728682173 4:0.3676194763298073 5:0.05542150116894892 6:0.7786242489881141 
-64.0 1:0.37297698589457945 2:0.36971046770601185 3:0.34899224806201534 4:0.36911996398829494 5:0.030573186233219148 6:0.6996452600514144 
64.0 1:0.34461766889383916 2:0.34639940608760145 3:0.3178294573643411 4:0.34158601545502104 5:0.05968345396406451 6:0.6599016269808184 
-64.0 1:0.34639940608760145 2:0.36391982182628096 3:0.3298449612403115 4:0.35216445344736746 5:0.038543344141901775 6:0.6399016248039779 
-64.0 1:0.3520415738678555 2:0.35998515219005084 3:0.32558139534883723 4:0.3541901117863309 5:0.034314209553385544 6:0.6212183111112957 
-64.0 1:0.350631031922792 2:0.346844840386042 3:0.31364341085271347 4:0.35073899017180593 5:0.023983172639727404 6:0.5764950162688731 
64.0 1:0.3300668151447669 2:0.3415738678544902 3:0.3058139534883707 4:0.3291319678895634 5:0.06163692197900175 6:0.5913920850831957 
64.0 1:0.3415738678544902 2:0.35300668151447506 3:0.3361240310077529 4:0.34263635681596244 5:0.09185471309873977 6:0.6441374862120144 
64.0 1:0.35300668151447506 2:0.38507795100222686 3:0.37635658914728826 4:0.35509040438142353 5:0.21631564567922734 6:0.6795138290842307 
-64.0 1:0.38507795100222686 2:0.3876020786933935 3:0.35968992248062087 4:0.384124840573185 5:0.07954351359987462 6:0.6831373705902636 
64.0 1:0.37535263548626585 2:0.38440979955456434 3:0.3544961240310079 4:0.3706204516467826 5:0.06723594344153434 6:0.7238556686775365 
64.0 1:0.40489977728285104 2:0.41484780994803405 3:0.3953488372093023 4:0.40603196038712513 5:0.15160769906158564 6:0.7736368323682499 
-64.0 1:0.41774313288789944 2:0.4271714922049001 3:0.4108527131782946 4:0.41743566659164144 5:0.25154537389613224 6:0.7516193057967894 
-64.0 1:0.42167780252412623 2:0.4187824795842608 3:0.39519379844961255 4:0.42163703203541025 5:0.08682950578737583 6:0.6686466409621912 
-64.0 1:0.39680772086117216 2:0.40445434298441046 3:0.3798449612403101 4:0.3991297171580751 5:0.09980414593160666 6:0.6217550203815112 
64.0 1:0.4043058648849303 2:0.395916852264291 3:0.37209302325581395 4:0.3991297171580751 5:0.07882228376406669 6:0.6280075791890798 
64.0 1:0.4145508537490703 2:0.41039346696362156 3:0.3953488372093023 4:0.41480981318928634 5:0.16610750300012636 6:0.6415984664862491 
64.0 1:0.41039346696362156 2:0.4259836674090586 3:0.39372093023255783 4:0.4149598619551351 5:0.10191810366481138 6:0.6564612864478551 
-64.0 1:0.4259836674090586 2:0.4311061618411269 3:0.41534883720930177 4:0.4299647385400252 5:0.21351523812250317 6:0.6550612445679171 
-64.0 1:0.4311061618411269 2:0.4248700816629554 3:0.39968992248061974 4:0.4244879585865402 5:0.0849855345556868 6:0.6461206478227427 
-64.0 1:0.42494432071269383 2:0.4206384558277649 3:0.39348837209302495 4:0.4199864956110739 5:0.12883888414342104 6:0.6080915933124826 
64.0 1:0.4207126948775067 2:0.39673348181143375 3:0.3875968992248062 4:0.3884762547828026 5:0.2495228923596314 6:0.587371140405265 
-64.0 1:0.39680772086117216 2:0.4034149962880458 3:0.3719379844961242 4:0.3991297171580751 5:0.0719473459200264 6:0.5667346088564736 
-64.0 1:0.4034149962880458 2:0.3939123979213067 3:0.37209302325581395 4:0.384124840573185 5:0.13866118280319806 6:0.5317187956816463 
64.0 1:0.3939123979213067 2:0.37112100965107536 3:0.3588372093023253 4:0.3762472803661164 5:0.14537507041305972 6:0.5306013421146187 
-64.0 1:0.37037861915367437 2:0.38366740905716334 3:0.3481395348837198 4:0.3699452322004648 5:0.15778660226002536 6:0.518163345921444 
64.0 1:0.38366740905716334 2:0.3702301410541942 3:0.35658914728682173 4:0.3616175256958499 5:0.18401487934327487 6:0.5245346688077707 
-64.0 1:0.376466221232369 2:0.38195991091313947 3:0.35325581395348965 4:0.3706204516467826 5:0.151172108134113 6:0.5351153800669547 
64.0 1:0.38195991091313947 2:0.3638455827765392 3:0.35209302325581454 4:0.3616175256958499 5:0.13963998371308914 6:0.5471079141114241 
-64.0 1:0.3637713437268008 2:0.37164068299925773 3:0.3392248062015521 4:0.3616175256958499 5:0.10020585367224871 6:0.558598768715033 
64.0 1:0.3712694877505555 2:0.3701559020044524 3:0.33767441860465075 4:0.3616175256958499 5:0.12064772882385949 6:0.5740991481179013 
64.0 1:0.3864884929472904 2:0.3843355605048259 3:0.3511627906976758 4:0.3871258158901637 5:0.05032138090605631 6:0.6428607194679642 
-64.0 1:0.38440979955456434 2:0.38440979955456434 3:0.35658914728682173 4:0.389001425463275 5:0.09248017879112327 6:0.6398680679907806 
-64.0 1:0.37342242019302 2:0.37230883444692026 3:0.33883720930232586 4:0.3739215244954588 5:0.07883859477708191 6:0.618578719902428 
64.0 1:0.37216035634744005 2:0.35612472160356246 3:0.3489147286821722 4:0.34158601545502104 5:0.2638119142897744 6:0.6081990563879325 
-64.0 1:0.35612472160356246 2:0.3553080920564197 3:0.3317829457364355 4:0.3563658188911397 5:0.10910736481894137 6:0.5961336877225677 
-64.0 1:0.3553080920564197 2:0.34803266518188697 3:0.32395348837209276 4:0.33483382099181985 5:0.24796645177747792 6:0.5835265763528044 
64.0 1:0.3488492947290263 2:0.3405345211581288 3:0.3126356589147281 4:0.33235801635531353 5:0.15720499693769135 6:0.6027039016119037 
-64.0 1:0.3405345211581288 2:0.357757980697848 3:0.32558139534883723 4:0.3412859179233235 5:0.1498919738703737 6:0.6092091393662672 
-64.0 1:0.357757980697848 2:0.34996288047512947 3:0.32558139534883723 4:0.3473628929402036 5:0.10105944934048086 6:0.6075695760464606 
-64.0 1:0.34996288047512947 2:0.34216778025241096 3:0.31589147286821706 4:0.3353589916722922 5:0.10382437624002759 6:0.6060287834051964 
64.0 1:0.3380103934669622 2:0.3379361544172238 3:0.30837209302325735 4:0.3316077725260697 5:0.1277338130116398 6:0.6201734496499002 
64.0 1:0.33860430586488294 2:0.3533036377134354 3:0.3178294573643411 4:0.3393352839672896 5:0.15654102380221005 6:0.6951719294894616 
64.0 1:0.3533036377134354 2:0.37082405345211494 3:0.3368217054263552 4:0.35779128216670125 5:0.19189664389276503 6:0.7473560646369677 
-55.3569597417162 1:0.39146250927988185 2:0.40445434298441046 3:0.3935658914728681 4:0.38795108410233364 5:0.38061051028709947 6:0.8103738238365763 
-64.0 1:0.4011135857461011 2:0.4026726057906448 3:0.36976744186046373 4:0.39807937579713376 5:0.10477538957362213 6:0.7957888072782362 
64.0 1:0.3957683741648108 2:0.3886414253897549 3:0.36356589147286894 4:0.39387801035336495 5:0.09981740213290598 6:0.7604385169802199 
64.0 1:0.3886414253897549 2:0.4007423904974023 3:0.3682170542635659 4:0.39327781528996647 5:0.14162720879877697 6:0.7523814328021426 
64.0 1:0.4007423904974023 2:0.4028953229398668 3:0.3875968992248062 4:0.4051316677920325 5:0.23633602687853159 6:0.7493114554931175 
-64.0 1:0.4028953229398668 2:0.40890868596881963 3:0.3746511627906971 4:0.40850776502363145 5:0.12523068908130558 6:0.7352233617348424 
-64.0 1:0.40920564216778 2:0.40378619153674794 3:0.37511627906976647 4:0.39762922949958746 5:0.1652598488005527 6:0.7071220248969509 
-64.0 1:0.40378619153674794 2:0.392576095025985 3:0.36930232558139436 4:0.3932027909070438 5:0.10725854512462069 6:0.6851716486585384 
64.0 1:0.39235337787676305 2:0.39086859688196113 3:0.37077519379844903 4:0.3922274739290251 5:0.17186695812933528 6:0.6634079585611793 
-64.0 1:0.39094283593169954 2:0.3979213066072753 3:0.3696899224806206 4:0.3972541075849639 5:0.17868183669349308 6:0.6477277531649472 
-64.0 1:0.3982182628062357 2:0.3886414253897549 3:0.3625581395348836 4:0.38269937729762005 5:0.22471245428659936 6:0.6351416903180827 
64.0 1:0.3881959910913143 2:0.38693392724573095 3:0.35658914728682173 4:0.3774476704929099 5:0.1943629279148372 6:0.6321668081730624 
64.0 1:0.3879732739420923 2:0.3907201187824809 3:0.3581395348837195 4:0.38960162052667 5:0.15589414640201962 6:0.6463145798639047 
-64.0 1:0.39079435783221933 2:0.40311804008908536 3:0.37077519379844903 4:0.39635381498987127 5:0.003967303593508144 6:0.6401081394493712 
-64.0 1:0.40311804008908536 2:0.39153674832962027 3:0.37209302325581395 4:0.38502513316827763 5:0.012961930445944916 6:0.6257863318307482 
-64.0 1:0.3916852264291005 2:0.38329621380846457 3:0.3562015503875955 4:0.384124840573185 5:0.00580209637715165 6:0.6216046352666801 
-64.0 1:0.38329621380846457 2:0.38641425389754863 3:0.35046511627907007 4:0.37122064671018107 5:0.010207499206834954 6:0.6065116048760983 
64.0 1:0.3785449146250917 2:0.3763177431328888 3:0.34806201550387666 4:0.3756470853027213 5:0.0042398964940108105 6:0.6210578076032972 
-64.0 1:0.3765404602821074 2:0.39213066072754105 3:0.35658914728682173 4:0.3807487433415861 5:0.00943791086079031 6:0.6296294868814108 
-64.0 1:0.3813659985152187 2:0.37542687453600426 3:0.3517054263565883 4:0.3813489384049812 5:0.007174491559870518 6:0.6168264859990745 
-64.0 1:0.3749072011878253 2:0.37297698589457945 3:0.34100775193798283 4:0.36566884237376995 5:0.010142927773867478 6:0.5981121126501631 
-64.0 1:0.3731997030438014 2:0.3590942835931697 3:0.33767441860465075 4:0.3564408432740624 5:0.012623364822696834 6:0.5762593283647431 
-64.0 1:0.34803266518188697 2:0.3521900519673357 3:0.32496124031007806 4:0.3466126491109598 5:0.009561238374146809 6:0.5693321931336841 
-64.0 1:0.3522642910170741 2:0.34795842613214517 3:0.31813953488372065 4:0.3316077725260697 5:0.014428043889012412 6:0.5460615285715048 
-64.0 1:0.34654788418708166 2:0.32657757980697727 3:0.3132558139534872 4:0.3016730437392156 5:0.03053289915210337 6:0.44839458521815184 
64.0 1:0.32657757980697727 2:0.2553080920564211 3:0.2894573643410864 4:0.2340760747242841 5:0.0599437855790102 6:0.40281642847523436 
64.0 1:0.2574610244988855 2:0.2632516703786198 3:0.23720930232558068 4:0.2433790982069143 5:0.037311246091750266 6:0.44462312429182277 
64.0 1:0.2632516703786198 2:0.29005196733481636 3:0.26286821705426244 4:0.2660364618501016 5:0.03215217356789971 6:0.5183623757952999 
39.105839806195945 1:0.29005196733481636 2:0.3134372680029685 3:0.29457364341085274 4:0.29304523970290314 5:0.021303276003906066 6:0.574760680567841 
-64.0 1:0.3161098737936153 2:0.3128433556050477 3:0.2868217054263566 4:0.3098507014779784 5:0.012660484988914467 6:0.6010876565797202 
64.0 1:0.31254639940608736 2:0.2992576095025984 3:0.28062015503875826 4:0.3007727511441196 5:0.011991257016765886 6:0.6502769110851603 
-64.0 1:0.29955456570155875 2:0.31959910913140155 3:0.28077519379844806 4:0.30489909220496575 5:0.005334177694501929 6:0.6599755688312717 
-64.0 1:0.3196733481811433 2:0.29948032665181695 3:0.28294573643410853 4:0.29379548353214696 5:0.01188418446483349 6:0.6679583019456315 
-64.0 1:0.29948032665181695 2:0.2979213066072766 3:0.2672868217054265 4:0.2865931427713994 5:0.01360494028634824 6:0.6667241234379613 
64.0 1:0.2902746844840383 2:0.30393466963622945 3:0.2725581395348826 4:0.2865931427713994 5:0.016521528778561417 6:0.7198213504773855 
-64.0 1:0.3038604305864877 2:0.3183370452858216 3:0.28821705426356464 4:0.3094755795633582 5:0.01854008670368398 6:0.7264083968397737 
-64.0 1:0.3179658500371194 2:0.3068299925760949 3:0.29457364341085274 4:0.3075999699902469 5:0.018433658745049434 6:0.7114191475145679 
-64.0 1:0.29175946547884024 2:0.30772086117297603 3:0.2724031007751928 4:0.29101958136394307 5:0.01563392380741867 6:0.7170459957850183 
-64.0 1:0.3076466221232376 2:0.29755011135857445 3:0.2696124031007767 4:0.2985970440393108 5:0.004816989663259837 6:0.6742930316978385 
-64.0 1:0.2971046770601339 2:0.2665924276169258 3:0.26100775193798503 4:0.23482631855352792 5:0.036272315837487766 6:0.608833773351736 
-64.0 1:0.23414996288047518 2:0.23726800296956257 3:0.22775193798449697 4:0.22027158826618412 5:0.03151296122279461 6:0.5235744987237787 
-64.0 1:0.23726800296956257 2:0.20363771343726705 3:0.20930232558139536 4:0.19656388326205887 5:0.029095400046301415 6:0.47934681001140034 
-64.0 1:0.20163325909428279 2:0.1867854491462501 3:0.18604651162790697 4:0.15154925350738857 5:0.06888652267096985 6:0.378210265676715 
-64.0 1:0.1867854491462501 2:0.11781737193763854 3:0.17054263565891473 4:0.0915297471678282 5:0.07397809506621704 6:0.40147986437347755 
64.0 1:0.11781737193763854 2:0.1705270972531539 3:0.13953488372093023 4:0.0915297471678282 5:0.07261390303385823 6:0.48119767286836085 
64.0 1:0.1705270972531539 2:0.20690423162583466 3:0.1629457364341084 4:0.1656538374971861 5:0.03804250916236824 6:0.5237188660284045 
64.0 1:0.20690423162583466 2:0.18901262063845636 3:0.17837209302325752 4:0.1925875909670615 5:0.02297631790848196 6:0.5859428377638938 
-64.0 1:0.18901262063845636 2:0.20660727542687427 3:0.17054263565891473 4:0.18726085977942863 5:0.02782216012826958 6:0.6107615390002047 
-64.0 1:0.2061618411284337 2:0.18737936154417087 3:0.1659689922480609 4:0.1895115912671601 5:0.013175613124182986 6:0.5843323819123456 
64.0 1:0.18760207869339285 2:0.14706755753526335 3:0.14480620155038632 4:0.13804486458098614 5:0.023650646575422242 6:0.5987423125117011 
-64.0 1:0.14706755753526335 2:0.16310319227913755 3:0.14728682170542637 4:0.14487208342711344 5:0.020949534412362896 6:0.6473445963096578 
64.0 1:0.16473645137342305 2:0.18648849294728972 3:0.1434108527131783 4:0.14644759546852718 5:0.02214667028255481 6:0.7183217635181162 
64.0 1:0.2126948775055689 2:0.20029695619896107 3:0.1930232558139542 4:0.20099032185460253 5:0.023052576098197452 6:0.7880425103739003 
-64.0 1:0.2000742390497391 2:0.2127691165553073 3:0.1766666666666664 4:0.20466651661789897 5:0.00952619211680053 6:0.7883479569462578 
-64.0 1:0.19547141796584977 2:0.20861172976985856 3:0.17054263565891473 4:0.19281266411583634 5:0.010485795356733836 6:0.8090505829256677 
64.0 1:0.21017074981440226 2:0.20571640682999312 3:0.18426356589147272 4:0.18238427488933867 5:0.015143009959512952 6:0.856468310882692 
-64.0 1:0.20571640682999312 2:0.2432813659985154 3:0.20403100775193925 4:0.2100682721884613 5:0.019776150403907063 6:0.8585107768927916 
64.0 1:0.22605790645879628 2:0.22472160356347456 3:0.18604651162790697 4:0.21877110060769647 5:0.011411585474325449 6:0.8442877192081106 
64.0 1:0.22472160356347456 2:0.2273199703043796 3:0.20155038759689922 4:0.22957461174881774 5:0.01680802247366125 6:0.8540738885368925 
-64.0 1:0.22761692650333998 2:0.2438752783964362 3:0.20767441860465088 4:0.2298747092805153 5:0.012221923327112588 6:0.8229268727153033 
-64.0 1:0.24417223459539655 2:0.22034149962880384 3:0.20837209302325665 4:0.2040663215545039 5:0.027374644224786665 6:0.7560187307688909 
-64.0 1:0.22034149962880384 2:0.18775055679287303 3:0.17829457364341086 4:0.18298446995273374 5:0.015328877035658914 6:0.6962067529790419 
-64.0 1:0.18715664439495228 2:0.17579806978470577 3:0.16100775193798436 4:0.17405656838472372 5:0.019895175957645287 6:0.6736025282832727 
64.0 1:0.18752783964365105 2:0.17386785449146328 3:0.1505426356589153 4:0.16887988596293624 5:0.013428798161261184 6:0.6418142879031754 
64.0 1:0.17386785449146328 2:0.18455827765404384 3:0.153410852713178 4:0.177957836296795 5:0.014487935014121569 6:0.6455686451651941 
-64.0 1:0.18463251670378564 2:0.18604305864884915 3:0.16279069767441862 4:0.18238427488933867 5:0.010894523559163372 6:0.5971920196635137 
64.0 1:0.1847067557535274 2:0.14357832219747377 3:0.1419379844961236 4:0.10128291694800813 5:0.040938596785130156 6:0.5692059011856108 
-64.0 1:0.14328136599851338 2:0.14083147735708854 3:0.1238759689922482 4:0.12904193863005345 5:0.02949134848595614 6:0.5582011955482373 
64.0 1:0.14008908685968757 2:0.14899777282850585 3:0.1189922480620148 4:0.1215395003376084 5:0.02309631035216696 6:0.5974191388962626 
-64.0 1:0.14825538233110488 2:0.1576095025983671 3:0.13953488372093023 4:0.15004876584890092 5:0.01806754376476705 6:0.5925597439186082 
-64.0 1:0.1579806978470659 2:0.13548626577579825 3:0.12449612403100734 4:0.13541901117863103 5:0.02266172835333443 6:0.5798377870684084 
64.0 1:0.13548626577579825 2:0.12234595397178946 3:0.09031007751938055 4:0.06227023782729184 5:0.0518617066557635 6:0.5887062771936559 
-64.0 1:0.12234595397178946 2:0.12947290274684542 3:0.12403100775193798 4:0.12101432965713602 5:0.029288750009861572 6:0.577049116628198 
-64.0 1:0.1284335560504807 2:0.10994803266518163 3:0.09883720930232558 4:0.08402730887538316 5:0.02584760270217434 6:0.537700752138446 
-64.0 1:0.10994803266518163 2:0.07802524127691 3:0.06961240310077534 4:0.07810038262435184 5:0.028823045365061 6:0.5385573068890871 
-64.0 1:0.07913882702301313 2:0.08968077208611688 3:0.05426356589147287 4:0.046515117413157926 5:0.07325743975921806 6:0.524679207334768 
-64.0 1:0.0696362286562741 2:0.08277654046028289 3:0.03860465116279084 4:0.06309550603946175 5:0.021038656442239876 6:0.5502759378507346 
-64.0 1:0.08240534521158073 2:0.06852264291017097 3:0.04999999999999859 4:0.062195213444369166 5:0.027637273954968178 6:0.5402759805148044 
64.0 1:0.06867112100965117 2:0.04899777282850719 3:0.023100775193798592 4:0.009227999099707543 5:0.057683182870544074 6:0.614376431139863 
64.0 1:0.04498886414253863 2:0.10304380103934764 3:0.055891472868217336 4:0.047940580688722895 5:0.04046662837502219 6:0.6969964910519527 
-64.0 1:0.1252412769116549 2:0.13088344469190893 3:0.09596899224806286 4:0.11418711081101211 5:0.02592209526676963 6:0.7814685797259043 
-64.0 1:0.13021529324424638 2:0.11752041573867816 3:0.08527131782945736 4:0.09528096631405072 5:0.027851166826672935 6:0.7849275802807401 
64.0 1:0.11106161841128476 2:0.13229398663696906 3:0.08527131782945736 4:0.1039837947332859 5:0.02616629803637123 6:0.846008398324874 
-64.0 1:0.13229398663696906 2:0.14751299183370392 3:0.11627906976744186 4:0.13286818215920204 5:0.05523144423636693 6:0.8582312788168562 
-64.0 1:0.14751299183370392 2:0.14550853749071965 3:0.10852713178294573 4:0.13279315777627596 5:0.030375646413222948 6:0.8451381192064966 
-64.0 1:0.14550853749071965 2:0.13466963622865552 3:0.10054263565891318 4:0.12093930527421333 5:0.03437042929927649 6:0.8009902276397614 
-64.0 1:0.1347438752783973 2:0.11158129175946374 3:0.10077519379844961 4:0.10038262435291213 5:0.05183548852401826 6:0.7885679388390067 
-42.058638231311484 1:0.11158129175946374 2:0.12731997030438094 3:0.08449612403100845 4:0.10233325830894949 5:0.041428389601213526 6:0.76223812830369 
-64.0 1:0.11722345953971779 2:0.1185597624350395 3:0.09410852713178196 4:0.1142621351939382 5:0.014329701372396583 6:0.6687034037659356 
64.0 1:0.11878247958426148 2:0.06792873051225021 3:0.07186046511627893 4:0.024007802535822784 5:0.033286545668937684 6:0.6578324818617906 
-64.0 1:0.06792873051225021 2:0.09613956941351029 3:0.05224806201550218 4:0.06902243229049307 5:0.018358984012783013 6:0.6289244582385224 
-64.0 1:0.10103934669635999 2:0.07698589458054866 3:0.057364341085272025 4:0.07652487058293811 5:0.02644550502462577 6:0.589982916119422 
-64.0 1:0.057535263548626654 2:0.061989606533035785 3:0.031007751937984496 4:0.05649336034210929 5:0.0160806830144215 6:0.4977180502536649 
-64.0 1:0.06176688938381381 3:0.022713178294572374 5:0.03863637577025921 6:0.4868069042317335 
-42.51861930002173 1:0.021974758723088645 2:0.03659985152189935 3:0.007674418604649471 4:0.023257558706578963 5:0.02255593097509996 6:0.5476562371592761 
64.0 1:0.1023014105419433 2:0.12880475129918287 3:0.09302325581395349 4:0.08440243079000677 5:0.08632082358508583 6:0.9197566422410455 
-64.0 1:0.1283593170007423 2:0.20660727542687427 3:0.17829457364341086 4:0.12941706054467705 5:0.117757204321516 6:0.9684608928856797 
-64.0 1:0.20660727542687427 2:0.1737193763919831 3:0.16279069767441862 4:0.17405656838472372 5:0.06370486135589892 6:0.968028991645835 
64.0 1:0.1540460282108391 2:0.17654046028210674 3:0.14728682170542637 4:0.15237452171955848 5:0.07560188163509834 6:0.953193987661661 
-64.0 1:0.17654046028210674 2:0.19554565701558818 3:0.16279069767441862 4:0.1741315927676498 5:0.10426879529310126 6:0.9146335557922188 
-64.0 1:0.19554565701558818 2:0.17342242019301934 3:0.1930232558139542 4:0.16655413009227868 5:0.14840915705315316 6:0.8760692706619508 
64.0 1:0.17780252412769004 2:0.1735708982925029 3:0.13937984496124045 4:0.15980193562907744 5:0.07074157810480237 6:0.8558538033019404 
-64.0 1:0.17386785449146328 2:0.18700816629547207 3:0.15503875968992248 4:0.17608222672368373 5:0.03297645425397735 6:0.891101171769424 
-64.0 1:0.23452115812917396 2:0.2224201930215299 3:0.19953488372092854 4:0.21156875984694895 5:0.03024908192047941 6:0.8426744506845653 
-64.0 1:0.2224201930215299 2:0.20690423162583466 3:0.18612403100775363 4:0.20489158976667382 5:0.0289771872406344 6:0.8044123136504909 
64.0 1:0.20690423162583466 2:0.20690423162583466 3:0.17054263565891473 4:0.1980643709205465 5:0.01688283733490547 6:0.7828830604219925 
-64.0 1:0.20801781737193778 2:0.21796585003711738 3:0.17550387596899125 4:0.20504163853252258 5:0.01138518517490906 6:0.7325664609612162 
-64.0 1:0.21796585003711738 2:0.19732739420935386 3:0.1782170542635642 4:0.19656388326205887 5:0.021878421380363756 6:0.696256185981444 
64.0 1:0.19962880475129852 2:0.18381588715664288 3:0.15930232558139676 4:0.18606046965263512 5:0.010405977890982373 6:0.6242925558639587 
64.0 1:0.18396436525612309 2:0.19354120267260388 3:0.153410852713178 4:0.18621051841848388 5:0.009915596533192274 6:0.6258703033070694 
-64.0 1:0.2077951002227158 2:0.19413511507052802 3:0.16736434108527246 4:0.19753920024007754 5:0.012740302454665927 6:0.5849563141978231 
64.0 1:0.19354120267260388 2:0.1869339272457303 3:0.15937984496123989 4:0.18155900667716876 5:0.02420603376601098 6:0.568782471332713 
64.0 1:0.18730512249443246 2:0.1850779510022262 3:0.15271317829457223 4:0.1890614449696138 5:0.018448526429593378 6:0.5595869708029199 
64.0 1:0.18604305864884915 2:0.184929472902746 3:0.14651162790697744 4:0.1830594943356564 5:0.016700305328431003 6:0.5932293946459939 
64.0 1:0.2146250927988114 2:0.20237564959168375 3:0.1765116279069766 4:0.20294095581063645 5:0.03351212529739048 6:0.6253715470079417 
-64.0 1:0.2013363028953224 2:0.2204157386785456 3:0.18604651162790697 4:0.20376622402280636 5:0.060320606413196046 6:0.6250933177781602 
-64.0 1:0.21997030438010504 2:0.208166295471418 3:0.18031007751938155 4:0.19656388326205887 5:0.059259409664362085 6:0.6057858042808527 
-64.0 1:0.208166295471418 2:0.19398663697104784 3:0.16643410852713023 4:0.1913121764573487 5:0.040659599990342306 6:0.5775281574716472 
-64.0 1:0.19398663697104784 2:0.18121752041573785 3:0.1548837209302327 4:0.163027984094831 5:0.021950461687847648 6:0.5452837361039856 
64.0 1:0.18106904231625764 2:0.16837416481068943 3:0.13689922480620043 4:0.1553004726536111 5:0.01719804345755529 6:0.5178891307507938 
64.0 1:0.16800296956199065 2:0.15976243504083157 3:0.13147286821705453 4:0.16145247205341726 5:0.009016402895585961 6:0.521238056036226 
64.0 1:0.15968819599108977 2:0.17164068299925703 3:0.13178294573643412 4:0.16362817915822606 5:0.011314700299078677 6:0.5397210163512348 
-64.0 1:0.17958426132145575 2:0.16510764662212185 3:0.13875968992248133 4:0.1673043739215225 5:0.012695881568705228 6:0.5035933708106605 
-64.0 1:0.13570898292501685 2:0.1510764662212319 3:0.10852713178294573 4:0.12086428089128724 5:0.04861233986708513 6:0.5111477226923398 
64.0 1:0.14981440237564858 2:0.1434298440979936 3:0.11248062015504046 4:0.1215395003376084 5:0.044766486058631046 6:0.5251717364943649 
-64.0 1:0.14350408314773536 2:0.1475872308834457 3:0.11201550387596758 4:0.14262135193937855 5:0.03331894348860367 6:0.5307695454151892 
-64.0 1:0.149368968077208 2:0.13927245731254484 3:0.10589147286821593 4:0.12904193863005345 5:0.06413973762558481 6:0.49673969594070044 
64.0 1:0.13927245731254484 2:0.1037861915367486 3:0.09620155038759577 4:0.09903218546027324 5:0.05999382563698045 6:0.4855975625235944 
-64.0 1:0.1037861915367486 2:0.10423162583518918 3:0.08527131782945736 4:0.09955735614074564 5:0.06847727599132249 6:0.48084147196417804 
64.0 1:0.10423162583518918 2:0.09762435040831557 3:0.06689922480620239 4:0.08365218696075954 5:0.09511118442659229 6:0.5334343479465262 
64.0 1:0.09755011135857379 2:0.13266518188567122 3:0.08837209302325652 4:0.09918223422612202 5:0.0678432203926002 6:0.5741910326018417 
-64.0 1:0.13266518188567122 2:0.13199703043800867 3:0.11155038759689824 4:0.12859179233250714 5:0.07149083373616912 6:0.5874600579975724 
64.0 1:0.13199703043800867 2:0.11700074239049581 3:0.08751937984496096 4:0.11538750093780223 5:0.041761882555465465 6:0.5997334263321743 
64.0 1:0.11700074239049581 2:0.1152190051967335 3:0.08488372093023115 4:0.11403706204516334 5:0.05501034873520356 6:0.6165076919869077 
64.0 1:0.1152190051967335 2:0.11789161098738032 3:0.07573643410852698 4:0.11268662315252446 5:0.05380564590021076 6:0.6834777704454563 
64.0 1:0.11789161098738032 2:0.15864884929472844 3:0.12325581395348907 4:0.11778828119138587 5:0.09155556575694514 6:0.7206255157383153 
-64.0 1:0.15864884929472844 2:0.15389755011135892 3:0.11643410852713164 4:0.15034886338059847 5:0.020043306300071322 6:0.7252781874083358 
-64.0 1:0.15397178916109733 2:0.1398663697104656 3:0.10798449612402974 4:0.14059569360041854 5:0.010202146279883221 6:0.7366443455629736 
64.0 1:0.1400148478099458 2:0.14751299183370392 3:0.10077519379844961 4:0.12761647535448847 5:0.009917348145414699 6:0.7439996944565155 
-64.0 1:0.14751299183370392 2:0.1492947290274662 3:0.11472868217054405 4:0.14562232725635726 5:0.01220456134676391 6:0.7327633358511966 
64.0 1:0.13882702301410427 2:0.1492204899777278 3:0.10379844961240212 4:0.13474379173231332 5:0.006990936611858159 6:0.7312866621505937 
39.281067433863846 1:0.1766146993318485 2:0.175426874536007 3:0.13372093023255813 4:0.1612273989046424 5:0.01566469613094223 6:0.797353297007583 
64.0 1:0.175426874536007 2:0.1853749072011866 3:0.14689922480620013 4:0.17180583689698883 5:0.018508795902942576 6:0.8211648830101987 
-64.0 1:0.1853749072011866 2:0.2014105419450642 3:0.1612403100775208 4:0.18681071348187894 5:0.014798320699935275 6:0.8052254684345072 
-64.0 1:0.2014847809948026 2:0.1837416481069045 3:0.16666666666666666 4:0.18230925050641258 5:0.026545655205055144 6:0.7836397233384866 
-64.0 1:0.18960653303637712 2:0.18448403860430543 3:0.153410852713178 4:0.18471003075999623 5:0.01548423803333912 6:0.7021126533057117 
-64.0 1:0.16933927245731237 2:0.16978470675575294 3:0.14728682170542637 4:0.16625403256058113 5:0.027628894242096098 6:0.6357320478460506 
64.0 1:0.16978470675575294 2:0.15018559762435074 3:0.12527131782945625 4:0.14404681521494353 5:0.03139829368026578 6:0.616683852095855 
64.0 1:0.15018559762435074 2:0.15590200445434318 3:0.12457364341085399 4:0.15124915597569105 5:0.026919967730538473 6:0.6015501004205343 
64.0 1:0.15590200445434318 2:0.15241276911655363 3:0.11558139534883607 4:0.15087403406106742 5:0.008780285568003072 6:0.595628397501269 
64.0 1:0.15241276911655363 2:0.15352635486265676 3:0.1197674418604637 4:0.1527496436341787 5:0.009922967317424237 6:0.6009072347721904 
64.0 1:0.15352635486265676 2:0.15857461024498665 3:0.11627906976744186 4:0.15762622852426866 5:0.0040909534035135685 6:0.6275047385259648 
64.0 1:0.1588715664439504 2:0.1750556792873048 3:0.13868217054263468 4:0.16287793532898223 5:0.012126985944657151 6:0.6531241908933137 
64.0 1:0.1750556792873048 2:0.18129175946547962 3:0.13953488372093023 4:0.1711306174506711 5:0.009268074539703982 6:0.6703044582741586 
-51.976006191717204 1:0.18285077951002332 2:0.17839643652561082 3:0.13953488372093023 4:0.177957836296795 5:0.004594576949705201 6:0.6717319232532747 
64.0 1:0.1788418708240514 2:0.17490720118782463 3:0.13364341085271148 4:0.16963012979218006 5:0.003492266358786487 6:0.6685975871186431 
64.0 1:0.17349665924276111 2:0.17453600593912247 3:0.13178294573643412 4:0.16760447145322002 5:0.0037315225754719606 6:0.6643958114436476 
-64.0 1:0.17453600593912247 2:0.17906458797327338 3:0.13635658914728796 4:0.17518193412859115 5:0.00344432823548316 6:0.6691125108708671 
64.0 1:0.17906458797327338 2:0.182108389012619 3:0.15139534883721084 4:0.16557881311426 5:0.011855976501603558 6:0.7013342058962938 
64.0 1:0.182108389012619 2:0.2062360801781721 3:0.16279069767441862 4:0.1796833971040575 5:0.009279312883723061 6:0.7631081957989525 
64.0 1:0.2062360801781721 2:0.24157386785449153 3:0.22542635658914673 4:0.2040663215545039 5:0.029285106656438936 6:0.827512022497614 
64.0 1:0.24246473645137268 2:0.26718634001484654 3:0.2679069767441856 4:0.2447295370995566 5:0.04384889348624038 6:0.8772428333517432 
64.0 1:0.2681514476614695 2:0.2829250185597604 3:0.2650387596899229 4:0.26408582789406426 5:0.018599375274188618 6:0.9381189041779222 
-64.0 1:0.2826280623608 2:0.3172234595397185 3:0.2879844961240317 4:0.28734338660064324 5:0.024824647151380365 6:0.9519122920284063 
-64.0 1:0.3172234595397185 2:0.3118782479584248 3:0.2815503875969005 4:0.2861429964738531 5:0.01707061016514943 6:0.9060307035882411 
64.0 1:0.3121009651076468 2:0.2837416481069031 3:0.27488372093023283 4:0.2768399729912195 5:0.021281345818881303 6:0.8664163730739176 
-64.0 1:0.2837416481069031 2:0.28856718634001444 3:0.2563565891472881 4:0.2865931427713994 5:0.00867104101691487 6:0.7951517376763181 
-64.0 1:0.27379361544172354 2:0.29435783221974865 3:0.2558139534883721 4:0.273989046440093 5:0.006774885753895372 6:0.6409250058166703 
64.0 1:0.29428359317000685 2:0.26555308092056445 3:0.2558139534883721 4:0.24728036611898901 5:0.017332441160157513 6:0.6033797600599955 
64.0 1:0.26065330363771133 2:0.26035634743875097 3:0.23000000000000057 4:0.26003451121614424 5:0.007132564969714554 6:0.5646887994465652 
64.0 1:0.2608017817371949 2:0.2633259094283582 3:0.23023255813953347 4:0.2640108035111382 5:0.00664764864205842 6:0.5591031346547699 
64.0 1:0.26347438752783836 2:0.2648849294729019 3:0.22813953488371966 4:0.26686173006226815 5:0.0022909966837496502 6:0.5863827291806332 
64.0 1:0.2884187082405342 2:0.2974758723088327 3:0.265658914728682 4:0.28344211868857194 5:0.0178954793929338 6:0.6460648069315644 
64.0 1:0.2973273942093525 2:0.30972531551596033 3:0.27906976744186046 4:0.30092279990996834 5:0.014879917803704722 6:0.6880412352276085 
-64.0 1:0.30972531551596033 2:0.3299925760950251 3:0.2917829457364331 4:0.3140520669217472 5:0.008677683130462306 6:0.6924998329590473 
64.0 1:0.3050482553823292 2:0.3004454342984399 3:0.26736434108526963 4:0.3038487508440244 5:0.0018371049117771076 6:0.639014663123372 
64.0 1:0.3005939123979201 2:0.3140311804008893 3:0.2751937984496124 4:0.30534923850251205 5:0.006694998223655013 6:0.6504702388799659 
64.0 1:0.3216778025241276 2:0.3178916109873776 3:0.2999999999999986 4:0.3188536274289145 5:0.004023957739230258 6:0.6300855716367652 
-64.0 1:0.3178173719376392 2:0.3166295471417977 3:0.28542635658914856 4:0.3204291394703282 5:0.002934132640232988 6:0.6073364394910381 
64.0 1:0.31499628804751223 2:0.3075723830734959 3:0.27906976744186046 4:0.31285167679495707 5:0.0026826571766838778 6:0.5922988751353073 
64.0 1:0.3075723830734959 2:0.31425389755011124 3:0.27906976744186046 4:0.3112011403706207 5:0.0026015365114389318 6:0.5996923848890809 
64.0 1:0.3146993318485518 2:0.31907943578322256 3:0.2868217054263566 4:0.3195288468752322 5:0.003954257585675523 6:0.6074624117163058 
-64.0 1:0.3216035634743858 2:0.3213808463251672 3:0.2862790697674406 4:0.3229049441068345 5:0.0022255844769154113 6:0.6090256596228424 
64.0 1:0.31766889383815905 2:0.3114328136599842 3:0.2838759689922472 4:0.3140520669217472 5:0.003063723918896879 6:0.6009684485155202 
64.0 1:0.3115812917594644 2:0.31700074239049647 3:0.28077519379844806 4:0.3169780178558032 5:0.0027555943096256538 6:0.608038314915506 
64.0 1:0.31700074239049647 2:0.321232368225687 3:0.28821705426356464 4:0.31975392002400704 5:0.0033100566489609492 6:0.6362358270853091 
64.0 1:0.3353377876763187 2:0.32835931700074295 3:0.30666666666666625 4:0.33228299197239086 5:0.005816235391011065 6:0.6415405426672074 
64.0 1:0.32835931700074295 2:0.3294729027468461 3:0.2959689922480607 4:0.33310826018455736 5:0.0018043707825644293 6:0.6405522749866736 
64.0 1:0.3294729027468461 2:0.330734966592426 3:0.29968992248061904 4:0.33520894290644343 5:0.002905322122398542 6:0.6402215560354853 
-64.0 1:0.3331106161841125 2:0.3457312546399389 3:0.31007751937984496 4:0.3358091379698385 5:0.005228198148596328 6:0.6590794662006214 
-64.0 1:0.34469190794357757 2:0.3358574610244977 3:0.3076744186046516 4:0.3418861129867186 5:0.0017067429237353502 6:0.621440153271506 
64.0 1:0.3360059391239779 2:0.31959910913140155 3:0.3035658914728671 4:0.3170530422387259 5:0.006612560346018802 6:0.6055208220157178 
-64.0 1:0.3183370452858216 2:0.318634001484782 3:0.28248062015503916 4:0.32072923700202577 5:8.235239895975534E-4 6:0.5346764775517946 
64.0 1:0.31885671863400056 2:0.2780252412769107 3:0.28248062015503916 4:0.2776652412033894 5:0.013844925173718242 6:0.5170994589516277 
64.0 1:0.2780252412769107 2:0.2857461024498874 3:0.2522480620155036 4:0.2772150949058431 5:0.005929445592170838 6:0.5125911605559829 
